<?xml version="1.0"?>
<MethodSetup Method="BDT::BDT_mtau_Cut01jet_8">
  <GeneralInfo>
    <Info name="TMVA Release" value="4.2.1 [262657]"/>
    <Info name="ROOT Release" value="6.04/16 [394256]"/>
    <Info name="Creator" value="atpathak"/>
    <Info name="Date" value="Tue Mar 20 09:34:56 2018"/>
    <Info name="Host" value="Linux lcgapp-slc6-physical1.cern.ch 2.6.32-573.8.1.el6.x86_64 #1 SMP Wed Nov 11 15:27:45 CET 2015 x86_64 x86_64 x86_64 GNU/Linux"/>
    <Info name="Dir" value="/afs/cern.ch/work/a/atpathak/private/LFV_area_16Feb2018/LFVlephad/share"/>
    <Info name="Training events" value="94395"/>
    <Info name="TrainingTime" value="9.43426247e+02"/>
    <Info name="AnalysisType" value="Classification"/>
  </GeneralInfo>
  <Options>
    <Option name="V" modified="Yes">False</Option>
    <Option name="VerbosityLevel" modified="No">Default</Option>
    <Option name="VarTransform" modified="No">None</Option>
    <Option name="H" modified="Yes">False</Option>
    <Option name="CreateMVAPdfs" modified="No">False</Option>
    <Option name="IgnoreNegWeightsInTraining" modified="No">False</Option>
    <Option name="NTrees" modified="Yes">1000</Option>
    <Option name="MaxDepth" modified="Yes">5</Option>
    <Option name="MinNodeSize" modified="Yes">5</Option>
    <Option name="nCuts" modified="Yes">50</Option>
    <Option name="BoostType" modified="Yes">Grad</Option>
    <Option name="AdaBoostR2Loss" modified="No">quadratic</Option>
    <Option name="UseBaggedBoost" modified="Yes">True</Option>
    <Option name="Shrinkage" modified="Yes">1.000000e-01</Option>
    <Option name="AdaBoostBeta" modified="No">5.000000e-01</Option>
    <Option name="UseRandomisedTrees" modified="No">False</Option>
    <Option name="UseNvars" modified="No">3</Option>
    <Option name="UsePoissonNvars" modified="No">True</Option>
    <Option name="BaggedSampleFraction" modified="Yes">5.000000e-01</Option>
    <Option name="UseYesNoLeaf" modified="No">True</Option>
    <Option name="NegWeightTreatment" modified="Yes">ignorenegweightsintraining</Option>
    <Option name="Css" modified="No">1.000000e+00</Option>
    <Option name="Cts_sb" modified="No">1.000000e+00</Option>
    <Option name="Ctb_ss" modified="No">1.000000e+00</Option>
    <Option name="Cbb" modified="No">1.000000e+00</Option>
    <Option name="NodePurityLimit" modified="No">5.000000e-01</Option>
    <Option name="SeparationType" modified="Yes">giniindex</Option>
    <Option name="DoBoostMonitor" modified="Yes">True</Option>
    <Option name="UseFisherCuts" modified="No">False</Option>
    <Option name="MinLinCorrForFisher" modified="No">8.000000e-01</Option>
    <Option name="UseExclusiveVars" modified="No">False</Option>
    <Option name="DoPreselection" modified="No">False</Option>
    <Option name="SigToBkgFraction" modified="No">1.000000e+00</Option>
    <Option name="PruneMethod" modified="Yes">costcomplexity</Option>
    <Option name="PruneStrength" modified="No">0.000000e+00</Option>
    <Option name="PruningValFraction" modified="No">5.000000e-01</Option>
    <Option name="nEventsMin" modified="No">0</Option>
    <Option name="UseBaggedGrad" modified="No">False</Option>
    <Option name="GradBaggingFraction" modified="No">5.000000e-01</Option>
    <Option name="UseNTrainEvents" modified="No">0</Option>
    <Option name="NNodesMax" modified="No">0</Option>
  </Options>
  <Variables NVar="8">
    <Variable VarIndex="0" Expression="collMass" Label="coll_approx_lfv_m" Title="m_{coll} [GeV]" Unit="" Internal="collMass" Type="F" Min="1.48399582e+01" Max="1.03296411e+03"/>
    <Variable VarIndex="1" Expression="transverseMassLepMET" Label="lephad_mt_lep0_met" Title="m_{T}(l,MET) [GeV]" Unit="" Internal="transverseMassLepMET" Type="F" Min="1.24151621e-03" Max="6.41931274e+02"/>
    <Variable VarIndex="2" Expression="transverseMassTauMET" Label="taumet_transverse_mass" Title="m_{T}(#tau,MET) [GeV]" Unit="" Internal="transverseMassTauMET" Type="F" Min="2.98889616e-04" Max="1.04440869e+03"/>
    <Variable VarIndex="3" Expression="leptonPt" Label="lep_0_pt" Title="p_{T}^{lep} [GeV]" Unit="" Internal="leptonPt" Type="F" Min="2.73003788e+01" Max="5.97592712e+02"/>
    <Variable VarIndex="4" Expression="tauPt" Label="tau_0_pt" Title="p_{T}^{#tau} [GeV]" Unit="" Internal="tauPt" Type="F" Min="2.50000820e+01" Max="6.49324951e+02"/>
    <Variable VarIndex="5" Expression="dAlpha" Label="0.5*(125.*125.-tau_0_m*tau_0_m)/(lep_0_pt*cosh(lep_0_eta)*tau_0_pt*cosh(tau_0_eta)) - lep_0_pt/tau_0_pt" Title="#Delta#alpha" Unit="" Internal="dAlpha" Type="F" Min="-1.18311195e+01" Max="9.84762001e+00"/>
    <Variable VarIndex="6" Expression="CosDPhi" Label="TMath::Cos(abs(TVector2::Phi_mpi_pi(tau_0_phi - met_reco_phi))) + TMath::Cos(abs(TVector2::Phi_mpi_pi(lep_0_phi - met_reco_phi)))" Title="#sum cos(#Delta#phi)" Unit="" Internal="CosDPhi" Type="F" Min="-3.49987417e-01" Max="1.99988556e+00"/>
    <Variable VarIndex="7" Expression="met" Label="met_reco_et" Title="MET" Unit="" Internal="met" Type="F" Min="2.17468385e-02" Max="6.40260254e+02"/>
  </Variables>
  <Spectators NSpec="0"/>
  <Classes NClass="2">
    <Class Name="Signal" Index="0"/>
    <Class Name="Background" Index="1"/>
  </Classes>
  <Transformations NTransformations="0"/>
  <MVAPdfs/>
  <Weights NTrees="1000" AnalysisType="1">
    <BinaryTree type="DecisionTree" boostWeight="1.0000000000000000e+00" itree="0">
      <Node pos="s" depth="0" NCoef="0" IVar="0" Cut="9.7009963989257812e+01" cType="1" res="1.1158420704305172e-02" rms="4.9987548589706421e-01" purity="5.1115840673446655e-01" nType="0">
        <Node pos="l" depth="1" NCoef="0" IVar="0" Cut="9.0759513854980469e+01" cType="1" res="-4.8842298984527588e-01" rms="1.0697185248136520e-01" purity="1.1577003635466099e-02" nType="0">
          <Node pos="l" depth="2" NCoef="0" IVar="0" Cut="8.5001678466796875e+01" cType="1" res="-4.9418807029724121e-01" rms="7.6014243066310883e-02" purity="5.8119432069361210e-03" nType="0">
            <Node pos="l" depth="3" NCoef="0" IVar="2" Cut="1.6897527694702148e+01" cType="1" res="-4.9730250239372253e-01" rms="5.1867317408323288e-02" purity="2.6974950451403856e-03" nType="0">
              <Node pos="l" depth="4" NCoef="0" IVar="-1" Cut="0.0000000000000000e+00" cType="1" res="-7.1530267596244812e-02" rms="8.4087029099464417e-02" purity="7.1213417686522007e-03" nType="-99"/>
              <Node pos="r" depth="4" NCoef="0" IVar="0" Cut="7.7271942138671875e+01" cType="1" res="-5.4873116314411163e-02" rms="0.0000000000000000e+00" purity="0.0000000000000000e+00" nType="-99"/>
            </Node>
            <Node pos="r" depth="3" NCoef="0" IVar="-1" Cut="0.0000000000000000e+00" cType="1" res="-3.3458158373832703e-02" rms="1.2282463908195496e-01" purity="1.5320611186325550e-02" nType="-99"/>
          </Node>
          <Node pos="r" depth="2" NCoef="0" IVar="-1" Cut="0.0000000000000000e+00" cType="1" res="-2.9133515432476997e-02" rms="1.9134050607681274e-01" purity="3.8059733808040619e-02" nType="-99"/>
        </Node>
        <Node pos="r" depth="1" NCoef="0" IVar="0" Cut="1.1536381530761719e+02" cType="1" res="2.3519580066204071e-01" rms="4.4122889637947083e-01" purity="7.3519581556320190e-01" nType="0">
          <Node pos="l" depth="2" NCoef="0" IVar="2" Cut="2.0586772918701172e+01" cType="1" res="-1.0167549550533295e-01" rms="4.8955294489860535e-01" purity="3.9832451939582825e-01" nType="0">
            <Node pos="l" depth="3" NCoef="0" IVar="-1" Cut="0.0000000000000000e+00" cType="1" res="4.3406928889453411e-03" rms="4.8983049392700195e-01" purity="6.0032981634140015e-01" nType="-99"/>
            <Node pos="r" depth="3" NCoef="0" IVar="-1" Cut="0.0000000000000000e+00" cType="1" res="-8.1521682441234589e-03" rms="3.8157209753990173e-01" purity="1.7688585817813873e-01" nType="-99"/>
          </Node>
          <Node pos="r" depth="2" NCoef="0" IVar="0" Cut="1.5135115051269531e+02" cType="1" res="3.2680904865264893e-01" rms="3.7841224670410156e-01" purity="8.2680904865264893e-01" nType="0">
            <Node pos="l" depth="3" NCoef="0" IVar="7" Cut="2.3472814559936523e+01" cType="1" res="3.7184980511665344e-01" rms="3.3425697684288025e-01" purity="8.7184977531433105e-01" nType="0">
              <Node pos="l" depth="4" NCoef="0" IVar="4" Cut="4.4354442596435547e+01" cType="1" res="4.3318426609039307e-01" rms="2.4970260262489319e-01" purity="9.3318426609039307e-01" nType="0">
                <Node pos="l" depth="5" NCoef="0" IVar="-1" Cut="0.0000000000000000e+00" cType="1" res="1.8033059313893318e-02" rms="2.8465381264686584e-01" purity="9.1106230020523071e-01" nType="-99"/>
                <Node pos="r" depth="5" NCoef="0" IVar="-1" Cut="0.0000000000000000e+00" cType="1" res="1.9009819254279137e-02" rms="2.1578893065452576e-01" purity="9.5103782415390015e-01" nType="-99"/>
              </Node>
              <Node pos="r" depth="4" NCoef="0" IVar="2" Cut="1.7807504653930664e+01" cType="1" res="3.0375155806541443e-01" rms="3.9715865254402161e-01" purity="8.0375152826309204e-01" nType="0">
                <Node pos="l" depth="5" NCoef="0" IVar="-1" Cut="0.0000000000000000e+00" cType="1" res="1.7419105395674706e-02" rms="3.1385651230812073e-01" purity="8.8922244310379028e-01" nType="-99"/>
                <Node pos="r" depth="5" NCoef="0" IVar="-1" Cut="0.0000000000000000e+00" cType="1" res="6.6242092289030552e-03" rms="4.6825560927391052e-01" purity="6.7531883716583252e-01" nType="-99"/>
              </Node>
            </Node>
            <Node pos="r" depth="3" NCoef="0" IVar="-1" Cut="0.0000000000000000e+00" cType="1" res="2.3025232367217541e-03" rms="4.9902603030204773e-01" purity="5.3119331598281860e-01" nType="-99"/>
          </Node>
        </Node>
      </Node>
    </BinaryTree>
    <BinaryTree type="DecisionTree" boostWeight="1.0000000000000000e+00" itree="1">
      <Node pos="s" depth="0" NCoef="0" IVar="0" Cut="1.1374225616455078e+02" cType="1" res="-4.8183198086917400e-03" rms="4.8933833837509155e-01" purity="4.9093323945999146e-01" nType="0">
        <Node pos="l" depth="1" NCoef="0" IVar="0" Cut="1.0403621673583984e+02" cType="1" res="-3.7900185585021973e-01" rms="2.9896759986877441e-01" purity="1.0338343679904938e-01" nType="0">
          <Node pos="l" depth="2" NCoef="0" IVar="0" Cut="9.5289451599121094e+01" cType="1" res="-4.4851902127265930e-01" rms="1.6838520765304565e-01" purity="3.0077330768108368e-02" nType="0">
            <Node pos="l" depth="3" NCoef="0" IVar="2" Cut="2.1834833145141602e+01" cType="1" res="-4.6664720773696899e-01" rms="8.9332766830921173e-02" purity="8.0404225736856461e-03" nType="0">
              <Node pos="l" depth="4" NCoef="0" IVar="2" Cut="1.0271566390991211e+01" cType="1" res="-4.5764386653900146e-01" rms="1.1776826530694962e-01" purity="1.4178927987813950e-02" nType="0">
                <Node pos="l" depth="5" NCoef="0" IVar="-1" Cut="0.0000000000000000e+00" cType="1" res="-2.7124039828777313e-02" rms="1.3370509445667267e-01" purity="1.8326677381992340e-02" nType="-99"/>
                <Node pos="r" depth="5" NCoef="0" IVar="-1" Cut="0.0000000000000000e+00" cType="1" res="-4.9991037696599960e-02" rms="9.9494181573390961e-02" purity="1.0117602534592152e-02" nType="-99"/>
              </Node>
              <Node pos="r" depth="4" NCoef="0" IVar="0" Cut="8.4857658386230469e+01" cType="1" res="-4.7500035166740417e-01" rms="4.8699527978897095e-02" purity="2.3452350869774818e-03" nType="0">
                <Node pos="l" depth="5" NCoef="0" IVar="-1" Cut="0.0000000000000000e+00" cType="1" res="-6.0585018247365952e-02" rms="4.6760682016611099e-02" purity="2.1913631353527308e-03" nType="-99"/>
                <Node pos="r" depth="5" NCoef="0" IVar="-1" Cut="0.0000000000000000e+00" cType="1" res="-5.6482776999473572e-02" rms="5.0576079636812210e-02" purity="2.5581654626876116e-03" nType="-99"/>
              </Node>
            </Node>
            <Node pos="r" depth="3" NCoef="0" IVar="-1" Cut="0.0000000000000000e+00" cType="1" res="-1.3332530856132507e-02" rms="3.2945454120635986e-01" purity="1.2492732703685760e-01" nType="-99"/>
          </Node>
          <Node pos="r" depth="2" NCoef="0" IVar="-1" Cut="0.0000000000000000e+00" cType="1" res="-1.2226757826283574e-03" rms="4.9296995997428894e-01" purity="4.2559719085693359e-01" nType="-99"/>
        </Node>
        <Node pos="r" depth="1" NCoef="0" IVar="0" Cut="1.4942706298828125e+02" cType="1" res="3.0477899312973022e-01" rms="3.8977259397506714e-01" purity="8.1158977746963501e-01" nType="0">
          <Node pos="l" depth="2" NCoef="0" IVar="7" Cut="2.3472814559936523e+01" cType="1" res="3.4815770387649536e-01" rms="3.5037690401077271e-01" purity="8.5587346553802490e-01" nType="0">
            <Node pos="l" depth="3" NCoef="0" IVar="4" Cut="4.2417800903320312e+01" cType="1" res="4.1691544651985168e-01" rms="2.6185649633407593e-01" purity="9.2582458257675171e-01" nType="0">
              <Node pos="l" depth="4" NCoef="0" IVar="-1" Cut="0.0000000000000000e+00" cType="1" res="1.5971131622791290e-02" rms="3.1409576535224915e-01" purity="8.8880836963653564e-01" nType="-99"/>
              <Node pos="r" depth="4" NCoef="0" IVar="-1" Cut="0.0000000000000000e+00" cType="1" res="2.0782027393579483e-02" rms="2.1739876270294189e-01" purity="9.5022690296173096e-01" nType="-99"/>
            </Node>
            <Node pos="r" depth="3" NCoef="0" IVar="2" Cut="2.1370332717895508e+01" cType="1" res="2.6449531316757202e-01" rms="4.1947016119956970e-01" purity="7.7075904607772827e-01" nType="0">
              <Node pos="l" depth="4" NCoef="0" IVar="-1" Cut="0.0000000000000000e+00" cType="1" res="1.6785189509391785e-02" rms="3.4227693080902100e-01" purity="8.6422252655029297e-01" nType="-99"/>
              <Node pos="r" depth="4" NCoef="0" IVar="-1" Cut="0.0000000000000000e+00" cType="1" res="2.5245957076549530e-03" rms="4.9151748418807983e-01" purity="5.9104210138320923e-01" nType="-99"/>
            </Node>
          </Node>
          <Node pos="r" depth="2" NCoef="0" IVar="-1" Cut="0.0000000000000000e+00" cType="1" res="3.7022635806351900e-03" rms="4.9580299854278564e-01" purity="5.6246858835220337e-01" nType="-99"/>
        </Node>
      </Node>
    </BinaryTree>
    <BinaryTree type="DecisionTree" boostWeight="1.0000000000000000e+00" itree="2">
      <Node pos="s" depth="0" NCoef="0" IVar="0" Cut="1.1374225616455078e+02" cType="1" res="1.1878081597387791e-02" rms="4.7961032390594482e-01" purity="5.0442975759506226e-01" nType="0">
        <Node pos="l" depth="1" NCoef="0" IVar="0" Cut="1.0596563720703125e+02" cType="1" res="-3.5279166698455811e-01" rms="3.0529090762138367e-01" purity="1.1217542737722397e-01" nType="0">
          <Node pos="l" depth="2" NCoef="0" IVar="3" Cut="4.1238014221191406e+01" cType="1" res="-4.1723927855491638e-01" rms="1.9587178528308868e-01" purity="4.1995119303464890e-02" nType="0">
            <Node pos="l" depth="3" NCoef="0" IVar="2" Cut="4.3445507049560547e+01" cType="1" res="-4.3653002381324768e-01" rms="1.3537912070751190e-01" purity="1.9186789169907570e-02" nType="0">
              <Node pos="l" depth="4" NCoef="0" IVar="6" Cut="-2.7440581470727921e-02" cType="1" res="-4.2978248000144958e-01" rms="1.5015046298503876e-01" purity="2.3940283805131912e-02" nType="0">
                <Node pos="l" depth="5" NCoef="0" IVar="-1" Cut="0.0000000000000000e+00" cType="1" res="-2.6231514289975166e-02" rms="1.0352857410907745e-01" purity="1.0836821049451828e-02" nType="-99"/>
                <Node pos="r" depth="5" NCoef="0" IVar="-1" Cut="0.0000000000000000e+00" cType="1" res="-3.4911714494228363e-02" rms="1.7588357627391815e-01" purity="3.3486612141132355e-02" nType="-99"/>
              </Node>
              <Node pos="r" depth="4" NCoef="0" IVar="-1" Cut="0.0000000000000000e+00" cType="1" res="-1.1249099858105183e-02" rms="5.3834315389394760e-02" purity="2.6009287685155869e-03" nType="-99"/>
            </Node>
            <Node pos="r" depth="3" NCoef="0" IVar="-1" Cut="0.0000000000000000e+00" cType="1" res="-1.0407025925815105e-02" rms="3.4863466024398804e-01" purity="1.4774343371391296e-01" nType="-99"/>
          </Node>
          <Node pos="r" depth="2" NCoef="0" IVar="-1" Cut="0.0000000000000000e+00" cType="1" res="1.5301163075491786e-03" rms="4.9774444103240967e-01" purity="5.3128421306610107e-01" nType="-99"/>
        </Node>
        <Node pos="r" depth="1" NCoef="0" IVar="0" Cut="1.4943362426757812e+02" cType="1" res="2.9421731829643250e-01" rms="3.9151409268379211e-01" purity="8.0812579393386841e-01" nType="0">
          <Node pos="l" depth="2" NCoef="0" IVar="4" Cut="3.1386198043823242e+01" cType="1" res="3.3353662490844727e-01" rms="3.5625147819519043e-01" purity="8.4931272268295288e-01" nType="0">
            <Node pos="l" depth="3" NCoef="0" IVar="-1" Cut="0.0000000000000000e+00" cType="1" res="2.3786989040672779e-03" rms="4.5742672681808472e-01" purity="6.9994401931762695e-01" nType="-99"/>
            <Node pos="r" depth="3" NCoef="0" IVar="2" Cut="4.2737590789794922e+01" cType="1" res="3.6996909976005554e-01" rms="3.1619170308113098e-01" purity="8.8596636056900024e-01" nType="0">
              <Node pos="l" depth="4" NCoef="0" IVar="4" Cut="4.3903568267822266e+01" cType="1" res="3.9802175760269165e-01" rms="2.7856183052062988e-01" purity="9.1456401348114014e-01" nType="0">
                <Node pos="l" depth="5" NCoef="0" IVar="-1" Cut="0.0000000000000000e+00" cType="1" res="1.3939222320914268e-02" rms="3.2008966803550720e-01" purity="8.8324272632598877e-01" nType="-99"/>
                <Node pos="r" depth="5" NCoef="0" IVar="-1" Cut="0.0000000000000000e+00" cType="1" res="2.2085307165980339e-02" rms="2.1343089640140533e-01" purity="9.5194399356842041e-01" nType="-99"/>
              </Node>
              <Node pos="r" depth="4" NCoef="0" IVar="-1" Cut="0.0000000000000000e+00" cType="1" res="7.3573314584791660e-03" rms="4.3914723396301270e-01" purity="7.3324650526046753e-01" nType="-99"/>
            </Node>
          </Node>
          <Node pos="r" depth="2" NCoef="0" IVar="-1" Cut="0.0000000000000000e+00" cType="1" res="4.0922597981989384e-03" rms="4.9343904852867126e-01" purity="5.7923358678817749e-01" nType="-99"/>
        </Node>
      </Node>
    </BinaryTree>
    <BinaryTree type="DecisionTree" boostWeight="1.0000000000000000e+00" itree="3">
      <Node pos="s" depth="0" NCoef="0" IVar="0" Cut="1.1692388153076172e+02" cType="1" res="6.1072944663465023e-03" rms="4.7341141104698181e-01" purity="4.9727973341941833e-01" nType="0">
        <Node pos="l" depth="1" NCoef="0" IVar="0" Cut="1.0520644378662109e+02" cType="1" res="-2.9986217617988586e-01" rms="3.4956309199333191e-01" purity="1.6079454123973846e-01" nType="0">
          <Node pos="l" depth="2" NCoef="0" IVar="0" Cut="9.8295181274414062e+01" cType="1" res="-4.0630844235420227e-01" rms="1.9304381310939789e-01" purity="4.0886785835027695e-02" nType="0">
            <Node pos="l" depth="3" NCoef="0" IVar="2" Cut="4.1033119201660156e+01" cType="1" res="-4.2367529869079590e-01" rms="1.2889468669891357e-01" purity="1.7274385318160057e-02" nType="0">
              <Node pos="l" depth="4" NCoef="0" IVar="5" Cut="1.1664457321166992e+00" cType="1" res="-4.1799595952033997e-01" rms="1.4238722622394562e-01" purity="2.1283060312271118e-02" nType="0">
                <Node pos="l" depth="5" NCoef="0" IVar="-1" Cut="0.0000000000000000e+00" cType="1" res="-2.6196673512458801e-02" rms="1.8098069727420807e-01" purity="3.4895844757556915e-02" nType="-99"/>
                <Node pos="r" depth="5" NCoef="0" IVar="-1" Cut="0.0000000000000000e+00" cType="1" res="-2.5097502395510674e-02" rms="9.7658976912498474e-02" purity="9.8309069871902466e-03" nType="-99"/>
              </Node>
              <Node pos="r" depth="4" NCoef="0" IVar="-1" Cut="0.0000000000000000e+00" cType="1" res="-6.2073942273855209e-02" rms="3.8819517940282822e-02" purity="1.4217405114322901e-03" nType="-99"/>
            </Node>
            <Node pos="r" depth="3" NCoef="0" IVar="-1" Cut="0.0000000000000000e+00" cType="1" res="-1.0245804674923420e-02" rms="3.8363340497016907e-01" purity="1.8067808449268341e-01" nType="-99"/>
          </Node>
          <Node pos="r" depth="2" NCoef="0" IVar="-1" Cut="0.0000000000000000e+00" cType="1" res="1.5524612972512841e-03" rms="4.9147421121597290e-01" purity="5.6438153982162476e-01" nType="-99"/>
        </Node>
        <Node pos="r" depth="1" NCoef="0" IVar="0" Cut="1.5285171508789062e+02" cType="1" res="2.9303914308547974e-01" rms="3.8675358891487122e-01" purity="8.1282854080200195e-01" nType="0">
          <Node pos="l" depth="2" NCoef="0" IVar="7" Cut="1.9899621963500977e+01" cType="1" res="3.3693674206733704e-01" rms="3.4603223204612732e-01" purity="8.5894691944122314e-01" nType="0">
            <Node pos="l" depth="3" NCoef="0" IVar="-1" Cut="0.0000000000000000e+00" cType="1" res="1.7870979383587837e-02" rms="2.5067728757858276e-01" purity="9.3236690759658813e-01" nType="-99"/>
            <Node pos="r" depth="3" NCoef="0" IVar="1" Cut="6.4774169921875000e+01" cType="1" res="2.9288887977600098e-01" rms="3.8912731409072876e-01" purity="8.1167441606521606e-01" nType="0">
              <Node pos="l" depth="4" NCoef="0" IVar="-1" Cut="0.0000000000000000e+00" cType="1" res="1.7602845327928662e-03" rms="4.7670093178749084e-01" purity="6.4271098375320435e-01" nType="-99"/>
              <Node pos="r" depth="4" NCoef="0" IVar="2" Cut="1.6594024658203125e+01" cType="1" res="3.3674943447113037e-01" rms="3.4963718056678772e-01" purity="8.5609030723571777e-01" nType="0">
                <Node pos="l" depth="5" NCoef="0" IVar="-1" Cut="0.0000000000000000e+00" cType="1" res="1.8008122220635414e-02" rms="3.0082693696022034e-01" purity="8.9897084236145020e-01" nType="-99"/>
                <Node pos="r" depth="5" NCoef="0" IVar="-1" Cut="0.0000000000000000e+00" cType="1" res="1.0377153754234314e-02" rms="4.1338574886322021e-01" purity="7.7955722808837891e-01" nType="-99"/>
              </Node>
            </Node>
          </Node>
          <Node pos="r" depth="2" NCoef="0" IVar="-1" Cut="0.0000000000000000e+00" cType="1" res="7.8859942732378840e-05" rms="4.9995499849319458e-01" purity="5.0670653581619263e-01" nType="-99"/>
        </Node>
      </Node>
    </BinaryTree>
    <BinaryTree type="DecisionTree" boostWeight="1.0000000000000000e+00" itree="4">
      <Node pos="s" depth="0" NCoef="0" IVar="0" Cut="9.7009963989257812e+01" cType="1" res="1.3692195527255535e-02" rms="4.6559229493141174e-01" purity="5.0279492139816284e-01" nType="0">
        <Node pos="l" depth="1" NCoef="0" IVar="4" Cut="4.0638542175292969e+01" cType="1" res="-4.0390694141387939e-01" rms="1.3464093208312988e-01" purity="1.8848612904548645e-02" nType="0">
          <Node pos="l" depth="2" NCoef="0" IVar="0" Cut="8.6075759887695312e+01" cType="1" res="-4.0756884217262268e-01" rms="1.2032543867826462e-01" purity="1.5019000507891178e-02" nType="0">
            <Node pos="l" depth="3" NCoef="0" IVar="3" Cut="3.2273071289062500e+01" cType="1" res="-4.1149246692657471e-01" rms="7.3906429111957550e-02" purity="5.4468833841383457e-03" nType="0">
              <Node pos="l" depth="4" NCoef="0" IVar="5" Cut="2.3096802234649658e+00" cType="1" res="-4.0643075108528137e-01" rms="9.3261919915676117e-02" purity="8.7450109422206879e-03" nType="0">
                <Node pos="l" depth="5" NCoef="0" IVar="-1" Cut="0.0000000000000000e+00" cType="1" res="-5.8535207062959671e-02" rms="5.6429669260978699e-02" purity="3.1887667719274759e-03" nType="-99"/>
                <Node pos="r" depth="5" NCoef="0" IVar="-1" Cut="0.0000000000000000e+00" cType="1" res="-5.6970041245222092e-02" rms="1.1997564882040024e-01" purity="1.4546655118465424e-02" nType="-99"/>
              </Node>
              <Node pos="r" depth="4" NCoef="0" IVar="-1" Cut="0.0000000000000000e+00" cType="1" res="-3.7958547472953796e-02" rms="3.3765632659196854e-02" purity="1.1205484624952078e-03" nType="-99"/>
            </Node>
            <Node pos="r" depth="3" NCoef="0" IVar="-1" Cut="0.0000000000000000e+00" cType="1" res="-1.8435809761285782e-02" rms="1.8448591232299805e-01" purity="3.5895399749279022e-02" nType="-99"/>
          </Node>
          <Node pos="r" depth="2" NCoef="0" IVar="-1" Cut="0.0000000000000000e+00" cType="1" res="-2.5284718722105026e-02" rms="1.9177295267581940e-01" purity="3.8873400539159775e-02" nType="-99"/>
        </Node>
        <Node pos="r" depth="1" NCoef="0" IVar="0" Cut="1.1536295318603516e+02" cType="1" res="2.0261321961879730e-01" rms="4.3824619054794312e-01" purity="7.2173130512237549e-01" nType="0">
          <Node pos="l" depth="2" NCoef="0" IVar="2" Cut="2.0876464843750000e+01" cType="1" res="-9.1102465987205505e-02" rms="4.8288697004318237e-01" purity="4.0115341544151306e-01" nType="0">
            <Node pos="l" depth="3" NCoef="0" IVar="-1" Cut="0.0000000000000000e+00" cType="1" res="3.7864143960177898e-03" rms="4.8678839206695557e-01" purity="5.8716374635696411e-01" nType="-99"/>
            <Node pos="r" depth="3" NCoef="0" IVar="-1" Cut="0.0000000000000000e+00" cType="1" res="-7.6639316976070404e-03" rms="3.7448319792747498e-01" purity="1.7402093112468719e-01" nType="-99"/>
          </Node>
          <Node pos="r" depth="2" NCoef="0" IVar="0" Cut="1.5135115051269531e+02" cType="1" res="2.7860906720161438e-01" rms="3.9156582951545715e-01" purity="8.0467748641967773e-01" nType="0">
            <Node pos="l" depth="3" NCoef="0" IVar="4" Cut="3.1359207153320312e+01" cType="1" res="3.1810149550437927e-01" rms="3.5609066486358643e-01" purity="8.4745156764984131e-01" nType="0">
              <Node pos="l" depth="4" NCoef="0" IVar="-1" Cut="0.0000000000000000e+00" cType="1" res="1.5580245526507497e-03" rms="4.7166383266448975e-01" purity="6.6019862890243530e-01" nType="-99"/>
              <Node pos="r" depth="4" NCoef="0" IVar="2" Cut="4.1784492492675781e+01" cType="1" res="3.5940679907798767e-01" rms="3.0941316485404968e-01" purity="8.9033252000808716e-01" nType="0">
                <Node pos="l" depth="5" NCoef="0" IVar="-1" Cut="0.0000000000000000e+00" cType="1" res="1.6130773350596428e-02" rms="2.6565888524055481e-01" purity="9.2267096042633057e-01" nType="-99"/>
                <Node pos="r" depth="5" NCoef="0" IVar="-1" Cut="0.0000000000000000e+00" cType="1" res="5.3871227428317070e-03" rms="4.3803691864013672e-01" purity="7.3322284221649170e-01" nType="-99"/>
              </Node>
            </Node>
            <Node pos="r" depth="3" NCoef="0" IVar="-1" Cut="0.0000000000000000e+00" cType="1" res="1.6132682794705033e-03" rms="4.9801847338676453e-01" purity="5.4040563106536865e-01" nType="-99"/>
          </Node>
        </Node>
      </Node>
    </BinaryTree>
    <BinaryTree type="DecisionTree" boostWeight="1.0000000000000000e+00" itree="5">
      <Node pos="s" depth="0" NCoef="0" IVar="0" Cut="9.8359153747558594e+01" cType="1" res="1.8235487863421440e-02" rms="4.5821365714073181e-01" purity="5.0432467460632324e-01" nType="0">
        <Node pos="l" depth="1" NCoef="0" IVar="2" Cut="1.4558773994445801e+01" cType="1" res="-3.8580700755119324e-01" rms="1.4140354096889496e-01" purity="2.1157069131731987e-02" nType="0">
          <Node pos="l" depth="2" NCoef="0" IVar="5" Cut="1.4992276430130005e+00" cType="1" res="-3.6864241957664490e-01" rms="2.0378890633583069e-01" purity="4.4983945786952972e-02" nType="0">
            <Node pos="l" depth="3" NCoef="0" IVar="-1" Cut="0.0000000000000000e+00" cType="1" res="-2.0652173087000847e-02" rms="2.4413338303565979e-01" purity="6.5535724163055420e-02" nType="-99"/>
            <Node pos="r" depth="3" NCoef="0" IVar="-1" Cut="0.0000000000000000e+00" cType="1" res="-2.0545877516269684e-02" rms="1.4480312168598175e-01" purity="2.2509453818202019e-02" nType="-99"/>
          </Node>
          <Node pos="r" depth="2" NCoef="0" IVar="2" Cut="3.3829555511474609e+01" cType="1" res="-3.9472270011901855e-01" rms="9.2610172927379608e-02" purity="8.7807923555374146e-03" nType="0">
            <Node pos="l" depth="3" NCoef="0" IVar="7" Cut="8.1691455841064453e+00" cType="1" res="-3.8843527436256409e-01" rms="1.2134478986263275e-01" purity="1.5415182337164879e-02" nType="0">
              <Node pos="l" depth="4" NCoef="0" IVar="-1" Cut="0.0000000000000000e+00" cType="1" res="-2.8330208733677864e-02" rms="1.1978048831224442e-01" purity="1.5138106420636177e-02" nType="-99"/>
              <Node pos="r" depth="4" NCoef="0" IVar="-1" Cut="0.0000000000000000e+00" cType="1" res="-4.7957118600606918e-02" rms="1.2251658737659454e-01" purity="1.5651689842343330e-02" nType="-99"/>
            </Node>
            <Node pos="r" depth="3" NCoef="0" IVar="3" Cut="3.1006067276000977e+01" cType="1" res="-4.0150198340415955e-01" rms="4.3118298053741455e-02" purity="1.6273871297016740e-03" nType="0">
              <Node pos="l" depth="4" NCoef="0" IVar="-1" Cut="0.0000000000000000e+00" cType="1" res="-4.2056895792484283e-02" rms="4.0172930806875229e-02" purity="1.4346933458000422e-03" nType="-99"/>
              <Node pos="r" depth="4" NCoef="0" IVar="-1" Cut="0.0000000000000000e+00" cType="1" res="-4.8685219138860703e-02" rms="4.5125126838684082e-02" purity="1.8284121761098504e-03" nType="-99"/>
            </Node>
          </Node>
        </Node>
        <Node pos="r" depth="1" NCoef="0" IVar="0" Cut="1.1668580627441406e+02" cType="1" res="2.0927728712558746e-01" rms="4.3138623237609863e-01" purity="7.3277896642684937e-01" nType="0">
          <Node pos="l" depth="2" NCoef="0" IVar="2" Cut="2.3446954727172852e+01" cType="1" res="-4.5065604150295258e-02" rms="4.8851639032363892e-01" purity="4.5188790559768677e-01" nType="0">
            <Node pos="l" depth="3" NCoef="0" IVar="-1" Cut="0.0000000000000000e+00" cType="1" res="6.9135911762714386e-03" rms="4.7420012950897217e-01" purity="6.3673317432403564e-01" nType="-99"/>
            <Node pos="r" depth="3" NCoef="0" IVar="-1" Cut="0.0000000000000000e+00" cType="1" res="-7.4876607395708561e-03" rms="3.8434502482414246e-01" purity="1.8748034536838531e-01" nType="-99"/>
          </Node>
          <Node pos="r" depth="2" NCoef="0" IVar="0" Cut="1.5262329101562500e+02" cType="1" res="2.8437161445617676e-01" rms="3.8188832998275757e-01" purity="8.1571155786514282e-01" nType="0">
            <Node pos="l" depth="3" NCoef="0" IVar="7" Cut="1.9615608215332031e+01" cType="1" res="3.2284086942672729e-01" rms="3.4493097662925720e-01" purity="8.5807758569717407e-01" nType="0">
              <Node pos="l" depth="4" NCoef="0" IVar="-1" Cut="0.0000000000000000e+00" cType="1" res="1.5414342284202576e-02" rms="2.2673277556896210e-01" purity="9.4525486230850220e-01" nType="-99"/>
              <Node pos="r" depth="4" NCoef="0" IVar="3" Cut="5.4738716125488281e+01" cType="1" res="2.6999807357788086e-01" rms="3.9624905586242676e-01" purity="7.9999434947967529e-01" nType="0">
                <Node pos="l" depth="5" NCoef="0" IVar="-1" Cut="0.0000000000000000e+00" cType="1" res="2.5533677544444799e-03" rms="4.6155425906181335e-01" purity="6.7868000268936157e-01" nType="-99"/>
                <Node pos="r" depth="5" NCoef="0" IVar="-1" Cut="0.0000000000000000e+00" cType="1" res="1.4552551321685314e-02" rms="3.2427492737770081e-01" purity="8.7937074899673462e-01" nType="-99"/>
              </Node>
            </Node>
            <Node pos="r" depth="3" NCoef="0" IVar="-1" Cut="0.0000000000000000e+00" cType="1" res="2.2463756613433361e-03" rms="4.9833554029464722e-01" purity="5.4001873731613159e-01" nType="-99"/>
          </Node>
        </Node>
      </Node>
    </BinaryTree>
    <BinaryTree type="DecisionTree" boostWeight="1.0000000000000000e+00" itree="6">
      <Node pos="s" depth="0" NCoef="0" IVar="0" Cut="1.0248208618164062e+02" cType="1" res="1.6125742346048355e-02" rms="4.5114114880561829e-01" purity="4.9933776259422302e-01" nType="0">
        <Node pos="l" depth="1" NCoef="0" IVar="2" Cut="2.2824907302856445e+01" cType="1" res="-3.6915656924247742e-01" rms="1.6358229517936707e-01" purity="2.9584547504782677e-02" nType="0">
          <Node pos="l" depth="2" NCoef="0" IVar="0" Cut="8.9126083374023438e+01" cType="1" res="-3.5521307587623596e-01" rms="2.1231421828269958e-01" purity="5.1100648939609528e-02" nType="0">
            <Node pos="l" depth="3" NCoef="0" IVar="2" Cut="1.2531585693359375e+01" cType="1" res="-3.7625053524971008e-01" rms="1.1598183214664459e-01" purity="1.3653026893734932e-02" nType="0">
              <Node pos="l" depth="4" NCoef="0" IVar="-1" Cut="0.0000000000000000e+00" cType="1" res="-2.3115731775760651e-02" rms="9.6999347209930420e-02" purity="9.4745391979813576e-03" nType="-99"/>
              <Node pos="r" depth="4" NCoef="0" IVar="-1" Cut="0.0000000000000000e+00" cType="1" res="-3.3884231001138687e-02" rms="1.3627249002456665e-01" purity="1.9302723929286003e-02" nType="-99"/>
            </Node>
            <Node pos="r" depth="3" NCoef="0" IVar="-1" Cut="0.0000000000000000e+00" cType="1" res="-1.0403643362224102e-02" rms="3.3332332968711853e-01" purity="1.3293045759201050e-01" nType="-99"/>
          </Node>
          <Node pos="r" depth="2" NCoef="0" IVar="0" Cut="9.1055007934570312e+01" cType="1" res="-3.8280177116394043e-01" rms="9.1958791017532349e-02" purity="8.5287205874919891e-03" nType="0">
            <Node pos="l" depth="3" NCoef="0" IVar="0" Cut="8.2613456726074219e+01" cType="1" res="-3.7336769700050354e-01" rms="4.8810191452503204e-02" purity="2.3240786977112293e-03" nType="0">
              <Node pos="l" depth="4" NCoef="0" IVar="-1" Cut="0.0000000000000000e+00" cType="1" res="-6.1617624014616013e-02" rms="8.4642227739095688e-03" purity="0.0000000000000000e+00" nType="-99"/>
              <Node pos="r" depth="4" NCoef="0" IVar="-1" Cut="0.0000000000000000e+00" cType="1" res="-5.1106888800859451e-02" rms="7.2900749742984772e-02" purity="5.3163925185799599e-03" nType="-99"/>
            </Node>
            <Node pos="r" depth="3" NCoef="0" IVar="-1" Cut="0.0000000000000000e+00" cType="1" res="-1.5914633870124817e-02" rms="1.4581327140331268e-01" purity="2.2255379706621170e-02" nType="-99"/>
          </Node>
        </Node>
        <Node pos="r" depth="1" NCoef="0" IVar="0" Cut="1.1500186157226562e+02" cType="1" res="2.3203954100608826e-01" rms="4.1567292809486389e-01" purity="7.6258939504623413e-01" nType="0">
          <Node pos="l" depth="2" NCoef="0" IVar="-1" Cut="0.0000000000000000e+00" cType="1" res="-5.8151129633188248e-04" rms="4.9336534738540649e-01" purity="4.8130148649215698e-01" nType="-99"/>
          <Node pos="r" depth="2" NCoef="0" IVar="0" Cut="1.5182331848144531e+02" cType="1" res="2.7931284904479980e-01" rms="3.8127914071083069e-01" purity="8.1585872173309326e-01" nType="0">
            <Node pos="l" depth="3" NCoef="0" IVar="4" Cut="4.2353397369384766e+01" cType="1" res="3.2419034838676453e-01" rms="3.3787345886230469e-01" purity="8.6527168750762939e-01" nType="0">
              <Node pos="l" depth="4" NCoef="0" IVar="2" Cut="1.6340030670166016e+01" cType="1" res="2.7604156732559204e-01" rms="3.8662508130073547e-01" purity="8.1332635879516602e-01" nType="0">
                <Node pos="l" depth="5" NCoef="0" IVar="-1" Cut="0.0000000000000000e+00" cType="1" res="1.4016193337738514e-02" rms="3.2146179676055908e-01" purity="8.8243359327316284e-01" nType="-99"/>
                <Node pos="r" depth="5" NCoef="0" IVar="-1" Cut="0.0000000000000000e+00" cType="1" res="6.2962854281067848e-03" rms="4.6214249730110168e-01" purity="6.8191099166870117e-01" nType="-99"/>
              </Node>
              <Node pos="r" depth="4" NCoef="0" IVar="2" Cut="3.4011791229248047e+01" cType="1" res="3.7822112441062927e-01" rms="2.6268282532691956e-01" purity="9.2356288433074951e-01" nType="0">
                <Node pos="l" depth="5" NCoef="0" IVar="-1" Cut="0.0000000000000000e+00" cType="1" res="2.0603707060217857e-02" rms="2.1450023353099823e-01" purity="9.5149350166320801e-01" nType="-99"/>
                <Node pos="r" depth="5" NCoef="0" IVar="-1" Cut="0.0000000000000000e+00" cType="1" res="1.7492765560746193e-02" rms="3.4064227342605591e-01" purity="8.6169677972793579e-01" nType="-99"/>
              </Node>
            </Node>
            <Node pos="r" depth="3" NCoef="0" IVar="-1" Cut="0.0000000000000000e+00" cType="1" res="-2.7792583568952978e-04" rms="4.9957877397537231e-01" purity="5.0227928161621094e-01" nType="-99"/>
          </Node>
        </Node>
      </Node>
    </BinaryTree>
    <BinaryTree type="DecisionTree" boostWeight="1.0000000000000000e+00" itree="7">
      <Node pos="s" depth="0" NCoef="0" IVar="0" Cut="1.1465605163574219e+02" cType="1" res="1.7499286681413651e-02" rms="4.4340407848358154e-01" purity="4.9814474582672119e-01" nType="0">
        <Node pos="l" depth="1" NCoef="0" IVar="0" Cut="1.0486683654785156e+02" cType="1" res="-2.8911763429641724e-01" rms="2.9524052143096924e-01" purity="1.1741832643747330e-01" nType="0">
          <Node pos="l" depth="2" NCoef="0" IVar="0" Cut="9.7800727844238281e+01" cType="1" res="-3.4821522235870361e-01" rms="1.8455567955970764e-01" purity="3.8896534591913223e-02" nType="0">
            <Node pos="l" depth="3" NCoef="0" IVar="3" Cut="3.1144945144653320e+01" cType="1" res="-3.5717275738716125e-01" rms="1.2370184808969498e-01" purity="1.5668401494622231e-02" nType="0">
              <Node pos="l" depth="4" NCoef="0" IVar="3" Cut="2.8958520889282227e+01" cType="1" res="-3.4736517071723938e-01" rms="1.0902726650238037e-01" purity="1.2106630019843578e-02" nType="0">
                <Node pos="l" depth="5" NCoef="0" IVar="-1" Cut="0.0000000000000000e+00" cType="1" res="-4.2297419160604477e-02" rms="5.5946361273527145e-02" purity="2.7855185326188803e-03" nType="-99"/>
                <Node pos="r" depth="5" NCoef="0" IVar="-1" Cut="0.0000000000000000e+00" cType="1" res="-4.4216394424438477e-02" rms="1.4175023138523102e-01" purity="2.0955320447683334e-02" nType="-99"/>
              </Node>
              <Node pos="r" depth="4" NCoef="0" IVar="7" Cut="1.7285289764404297e+01" cType="1" res="-3.6366647481918335e-01" rms="1.3212701678276062e-01" purity="1.8026705831289291e-02" nType="0">
                <Node pos="l" depth="5" NCoef="0" IVar="-1" Cut="0.0000000000000000e+00" cType="1" res="-2.3902069777250290e-02" rms="1.4628486335277557e-01" purity="2.2501280531287193e-02" nType="-99"/>
                <Node pos="r" depth="5" NCoef="0" IVar="-1" Cut="0.0000000000000000e+00" cType="1" res="-1.4044701121747494e-02" rms="8.1655755639076233e-02" purity="6.1616627499461174e-03" nType="-99"/>
              </Node>
            </Node>
            <Node pos="r" depth="3" NCoef="0" IVar="-1" Cut="0.0000000000000000e+00" cType="1" res="-5.8474210090935230e-03" rms="3.7499651312828064e-01" purity="1.7483189702033997e-01" nType="-99"/>
          </Node>
          <Node pos="r" depth="2" NCoef="0" IVar="-1" Cut="0.0000000000000000e+00" cType="1" res="-9.1264431830495596e-05" rms="4.9556842446327209e-01" purity="4.9798890948295593e-01" nType="-99"/>
        </Node>
        <Node pos="r" depth="1" NCoef="0" IVar="0" Cut="1.5068011474609375e+02" cType="1" res="2.7424451708793640e-01" rms="3.7895411252975464e-01" purity="8.1694543361663818e-01" nType="0">
          <Node pos="l" depth="2" NCoef="0" IVar="3" Cut="4.7890232086181641e+01" cType="1" res="3.1557852029800415e-01" rms="3.3802396059036255e-01" purity="8.6392432451248169e-01" nType="0">
            <Node pos="l" depth="3" NCoef="0" IVar="-1" Cut="0.0000000000000000e+00" cType="1" res="7.6434840448200703e-03" rms="4.2748993635177612e-01" purity="7.4529725313186646e-01" nType="-99"/>
            <Node pos="r" depth="3" NCoef="0" IVar="4" Cut="3.6613697052001953e+01" cType="1" res="3.4784007072448730e-01" rms="2.9984673857688904e-01" purity="8.9803171157836914e-01" nType="0">
              <Node pos="l" depth="4" NCoef="0" IVar="-1" Cut="0.0000000000000000e+00" cType="1" res="1.3191477395594120e-02" rms="3.7030145525932312e-01" purity="8.3317631483078003e-01" nType="-99"/>
              <Node pos="r" depth="4" NCoef="0" IVar="1" Cut="6.2389991760253906e+01" cType="1" res="3.8072955608367920e-01" rms="2.4421496689319611e-01" purity="9.3555283546447754e-01" nType="0">
                <Node pos="l" depth="5" NCoef="0" IVar="-1" Cut="0.0000000000000000e+00" cType="1" res="1.9345039501786232e-02" rms="2.1082927286624908e-01" purity="9.5286625623703003e-01" nType="-99"/>
                <Node pos="r" depth="5" NCoef="0" IVar="-1" Cut="0.0000000000000000e+00" cType="1" res="1.7979236319661140e-02" rms="2.7839922904968262e-01" purity="9.1450083255767822e-01" nType="-99"/>
              </Node>
            </Node>
          </Node>
          <Node pos="r" depth="2" NCoef="0" IVar="-1" Cut="0.0000000000000000e+00" cType="1" res="1.3912945287302136e-03" rms="4.9832153320312500e-01" purity="5.3240895271301270e-01" nType="-99"/>
        </Node>
      </Node>
    </BinaryTree>
    <BinaryTree type="DecisionTree" boostWeight="1.0000000000000000e+00" itree="8">
      <Node pos="s" depth="0" NCoef="0" IVar="0" Cut="9.8661178588867188e+01" cType="1" res="2.4088565260171890e-02" rms="4.3679046630859375e-01" purity="5.0452625751495361e-01" nType="0">
        <Node pos="l" depth="1" NCoef="0" IVar="3" Cut="3.1145013809204102e+01" cType="1" res="-3.4582749009132385e-01" rms="1.1916782706975937e-01" purity="1.4710344374179840e-02" nType="0">
          <Node pos="l" depth="2" NCoef="0" IVar="4" Cut="3.2610443115234375e+01" cType="1" res="-3.3434259891510010e-01" rms="7.5492106378078461e-02" purity="5.5745928548276424e-03" nType="0">
            <Node pos="l" depth="3" NCoef="0" IVar="-1" Cut="0.0000000000000000e+00" cType="1" res="-3.6169428378343582e-02" rms="4.2220748960971832e-02" purity="1.2924051843583584e-03" nType="-99"/>
            <Node pos="r" depth="3" NCoef="0" IVar="-1" Cut="0.0000000000000000e+00" cType="1" res="-4.5583229511976242e-02" rms="9.6297040581703186e-02" purity="9.5646483823657036e-03" nType="-99"/>
          </Node>
          <Node pos="r" depth="2" NCoef="0" IVar="1" Cut="3.5043334960937500e+01" cType="1" res="-3.5334497690200806e-01" rms="1.4008244872093201e-01" purity="2.0690200850367546e-02" nType="0">
            <Node pos="l" depth="3" NCoef="0" IVar="5" Cut="1.9796644449234009e+00" cType="1" res="-3.4711521863937378e-01" rms="1.3718332350254059e-01" purity="1.9850779324769974e-02" nType="0">
              <Node pos="l" depth="4" NCoef="0" IVar="-1" Cut="0.0000000000000000e+00" cType="1" res="-2.4642640724778175e-02" rms="1.5683549642562866e-01" purity="2.6761623099446297e-02" nType="-99"/>
              <Node pos="r" depth="4" NCoef="0" IVar="-1" Cut="0.0000000000000000e+00" cType="1" res="-1.6743820160627365e-02" rms="1.0099485516548157e-01" purity="9.7004100680351257e-03" nType="-99"/>
            </Node>
            <Node pos="r" depth="3" NCoef="0" IVar="-1" Cut="0.0000000000000000e+00" cType="1" res="-3.0917869880795479e-02" rms="1.4554351568222046e-01" purity="2.2628860548138618e-02" nType="-99"/>
          </Node>
        </Node>
        <Node pos="r" depth="1" NCoef="0" IVar="0" Cut="1.1698195648193359e+02" cType="1" res="2.0114524662494659e-01" rms="4.2244690656661987e-01" purity="7.3897182941436768e-01" nType="0">
          <Node pos="l" depth="2" NCoef="0" IVar="0" Cut="1.0800025939941406e+02" cType="1" res="-4.9840327352285385e-02" rms="4.8371699452400208e-01" purity="4.4976490736007690e-01" nType="0">
            <Node pos="l" depth="3" NCoef="0" IVar="-1" Cut="0.0000000000000000e+00" cType="1" res="-7.3626195080578327e-03" rms="4.0608686208724976e-01" purity="2.1499465405941010e-01" nType="-99"/>
            <Node pos="r" depth="3" NCoef="0" IVar="-1" Cut="0.0000000000000000e+00" cType="1" res="4.5237583108246326e-03" rms="4.7088363766670227e-01" purity="6.4113879203796387e-01" nType="-99"/>
          </Node>
          <Node pos="r" depth="2" NCoef="0" IVar="0" Cut="1.5290370178222656e+02" cType="1" res="2.8085890412330627e-01" rms="3.6669689416885376e-01" purity="8.3082467317581177e-01" nType="0">
            <Node pos="l" depth="3" NCoef="0" IVar="6" Cut="-1.1965832859277725e-01" cType="1" res="3.2247403264045715e-01" rms="3.2229742407798767e-01" purity="8.7880104780197144e-01" nType="0">
              <Node pos="l" depth="4" NCoef="0" IVar="-1" Cut="0.0000000000000000e+00" cType="1" res="1.1844141408801079e-02" rms="3.9712816476821899e-01" purity="7.9635161161422729e-01" nType="-99"/>
              <Node pos="r" depth="4" NCoef="0" IVar="7" Cut="2.9298967361450195e+01" cType="1" res="3.4363615512847900e-01" rms="2.9505947232246399e-01" purity="9.0136194229125977e-01" nType="0">
                <Node pos="l" depth="5" NCoef="0" IVar="-1" Cut="0.0000000000000000e+00" cType="1" res="1.7259262502193451e-02" rms="2.6334071159362793e-01" purity="9.2377960681915283e-01" nType="-99"/>
                <Node pos="r" depth="5" NCoef="0" IVar="-1" Cut="0.0000000000000000e+00" cType="1" res="1.4086578041315079e-02" rms="3.5063746571540833e-01" purity="8.5311198234558105e-01" nType="-99"/>
              </Node>
            </Node>
            <Node pos="r" depth="3" NCoef="0" IVar="-1" Cut="0.0000000000000000e+00" cType="1" res="2.3671374947298318e-04" rms="4.9987670779228210e-01" purity="5.1110297441482544e-01" nType="-99"/>
          </Node>
        </Node>
      </Node>
    </BinaryTree>
    <BinaryTree type="DecisionTree" boostWeight="1.0000000000000000e+00" itree="9">
      <Node pos="s" depth="0" NCoef="0" IVar="0" Cut="1.0370294189453125e+02" cType="1" res="2.3037603124976158e-02" rms="4.3054279685020447e-01" purity="5.0184583663940430e-01" nType="0">
        <Node pos="l" depth="1" NCoef="0" IVar="7" Cut="2.3330226898193359e+01" cType="1" res="-3.2781478762626648e-01" rms="1.6295284032821655e-01" purity="3.0273791402578354e-02" nType="0">
          <Node pos="l" depth="2" NCoef="0" IVar="0" Cut="9.3706733703613281e+01" cType="1" res="-3.2157555222511292e-01" rms="1.6688983142375946e-01" purity="3.2634623348712921e-02" nType="0">
            <Node pos="l" depth="3" NCoef="0" IVar="3" Cut="3.0666303634643555e+01" cType="1" res="-3.3001393079757690e-01" rms="9.3289732933044434e-02" purity="8.5616139695048332e-03" nType="0">
              <Node pos="l" depth="4" NCoef="0" IVar="-1" Cut="0.0000000000000000e+00" cType="1" res="-3.4494776278734207e-02" rms="6.1636880040168762e-02" purity="3.6138237919658422e-03" nType="-99"/>
              <Node pos="r" depth="4" NCoef="0" IVar="2" Cut="2.1891717910766602e+01" cType="1" res="-3.3981174230575562e-01" rms="1.0724989324808121e-01" purity="1.1638843454420567e-02" nType="0">
                <Node pos="l" depth="5" NCoef="0" IVar="-1" Cut="0.0000000000000000e+00" cType="1" res="-2.6262816041707993e-02" rms="1.1521180719137192e-01" purity="1.3614142313599586e-02" nType="-99"/>
                <Node pos="r" depth="5" NCoef="0" IVar="-1" Cut="0.0000000000000000e+00" cType="1" res="-3.8099199533462524e-02" rms="9.3940198421478271e-02" purity="8.9520821347832680e-03" nType="-99"/>
              </Node>
            </Node>
            <Node pos="r" depth="3" NCoef="0" IVar="-1" Cut="0.0000000000000000e+00" cType="1" res="-1.0187417268753052e-02" rms="3.4504050016403198e-01" purity="1.4984332025051117e-01" nType="-99"/>
          </Node>
          <Node pos="r" depth="2" NCoef="0" IVar="-1" Cut="0.0000000000000000e+00" cType="1" res="-3.5502076148986816e-02" rms="1.3820524513721466e-01" purity="1.8754573538899422e-02" nType="-99"/>
        </Node>
        <Node pos="r" depth="1" NCoef="0" IVar="0" Cut="1.1619858551025391e+02" cType="1" res="2.2096727788448334e-01" rms="4.0784776210784912e-01" purity="7.6787823438644409e-01" nType="0">
          <Node pos="l" depth="2" NCoef="0" IVar="0" Cut="1.1031855010986328e+02" cType="1" res="1.4307628385722637e-02" rms="4.8852199316024780e-01" purity="5.1984649896621704e-01" nType="0">
            <Node pos="l" depth="3" NCoef="0" IVar="-1" Cut="0.0000000000000000e+00" cType="1" res="-2.9331527184695005e-03" rms="4.5584949851036072e-01" purity="3.0762907862663269e-01" nType="-99"/>
            <Node pos="r" depth="3" NCoef="0" IVar="-1" Cut="0.0000000000000000e+00" cType="1" res="7.0783291012048721e-03" rms="4.5657572150230408e-01" purity="6.8654114007949829e-01" nType="-99"/>
          </Node>
          <Node pos="r" depth="2" NCoef="0" IVar="0" Cut="1.5294960021972656e+02" cType="1" res="2.6633375883102417e-01" rms="3.7286958098411560e-01" purity="8.2232683897018433e-01" nType="0">
            <Node pos="l" depth="3" NCoef="0" IVar="7" Cut="2.9674623489379883e+01" cType="1" res="3.0588576197624207e-01" rms="3.3231347799301147e-01" purity="8.6909276247024536e-01" nType="0">
              <Node pos="l" depth="4" NCoef="0" IVar="4" Cut="4.2382419586181641e+01" cType="1" res="3.4057781100273132e-01" rms="2.8545179963111877e-01" purity="9.0842604637145996e-01" nType="0">
                <Node pos="l" depth="5" NCoef="0" IVar="-1" Cut="0.0000000000000000e+00" cType="1" res="1.3771010562777519e-02" rms="3.3469915390014648e-01" purity="8.6884653568267822e-01" nType="-99"/>
                <Node pos="r" depth="5" NCoef="0" IVar="-1" Cut="0.0000000000000000e+00" cType="1" res="1.6824210062623024e-02" rms="2.3874108493328094e-01" purity="9.3830293416976929e-01" nType="-99"/>
              </Node>
              <Node pos="r" depth="4" NCoef="0" IVar="1" Cut="8.6445999145507812e+01" cType="1" res="2.2790770232677460e-01" rms="4.0830972790718079e-01" purity="7.8068268299102783e-01" nType="0">
                <Node pos="l" depth="5" NCoef="0" IVar="-1" Cut="0.0000000000000000e+00" cType="1" res="6.2346649356186390e-03" rms="4.4813299179077148e-01" purity="7.0696032047271729e-01" nType="-99"/>
                <Node pos="r" depth="5" NCoef="0" IVar="-1" Cut="0.0000000000000000e+00" cType="1" res="1.1650236323475838e-02" rms="3.7417793273925781e-01" purity="8.2747590541839600e-01" nType="-99"/>
              </Node>
            </Node>
            <Node pos="r" depth="3" NCoef="0" IVar="-1" Cut="0.0000000000000000e+00" cType="1" res="1.0243906581308693e-04" rms="4.9991524219512939e-01" purity="5.0920677185058594e-01" nType="-99"/>
          </Node>
        </Node>
      </Node>
    </BinaryTree>
    <BinaryTree type="DecisionTree" boostWeight="1.0000000000000000e+00" itree="10">
      <Node pos="s" depth="0" NCoef="0" IVar="0" Cut="1.1733056640625000e+02" cType="1" res="2.7316786348819733e-02" rms="4.2308431863784790e-01" purity="5.0408631563186646e-01" nType="0">
        <Node pos="l" depth="1" NCoef="0" IVar="0" Cut="1.0960321044921875e+02" cType="1" res="-2.2692964971065521e-01" rms="3.1909736990928650e-01" purity="1.5975914895534515e-01" nType="0">
          <Node pos="l" depth="2" NCoef="0" IVar="0" Cut="1.0247126770019531e+02" cType="1" res="-2.9940563440322876e-01" rms="2.2049088776111603e-01" purity="6.0830704867839813e-02" nType="0">
            <Node pos="l" depth="3" NCoef="0" IVar="7" Cut="1.7159294128417969e+01" cType="1" res="-3.1697675585746765e-01" rms="1.5294359624385834e-01" purity="2.5651613250374794e-02" nType="0">
              <Node pos="l" depth="4" NCoef="0" IVar="5" Cut="2.2923119068145752e+00" cType="1" res="-3.0838119983673096e-01" rms="1.6528570652008057e-01" purity="3.0825696885585785e-02" nType="0">
                <Node pos="l" depth="5" NCoef="0" IVar="-1" Cut="0.0000000000000000e+00" cType="1" res="-1.7212357372045517e-02" rms="1.9351685047149658e-01" purity="4.3531470000743866e-02" nType="-99"/>
                <Node pos="r" depth="5" NCoef="0" IVar="-1" Cut="0.0000000000000000e+00" cType="1" res="-2.8401598334312439e-02" rms="1.0725275427103043e-01" purity="1.1353600770235062e-02" nType="-99"/>
              </Node>
              <Node pos="r" depth="4" NCoef="0" IVar="0" Cut="8.9347824096679688e+01" cType="1" res="-3.3620980381965637e-01" rms="1.1860963702201843e-01" purity="1.4074307866394520e-02" nType="0">
                <Node pos="l" depth="5" NCoef="0" IVar="-1" Cut="0.0000000000000000e+00" cType="1" res="-4.8853587359189987e-02" rms="4.5130811631679535e-02" purity="1.5001299325376749e-03" nType="-99"/>
                <Node pos="r" depth="5" NCoef="0" IVar="-1" Cut="0.0000000000000000e+00" cType="1" res="-2.5692807510495186e-02" rms="1.5537708997726440e-01" purity="2.5603098794817924e-02" nType="-99"/>
              </Node>
            </Node>
            <Node pos="r" depth="3" NCoef="0" IVar="-1" Cut="0.0000000000000000e+00" cType="1" res="-6.0253054834902287e-03" rms="4.5494344830513000e-01" purity="3.0550625920295715e-01" nType="-99"/>
          </Node>
          <Node pos="r" depth="2" NCoef="0" IVar="-1" Cut="0.0000000000000000e+00" cType="1" res="7.3919505812227726e-03" rms="4.5661151409149170e-01" purity="6.8325155973434448e-01" nType="-99"/>
        </Node>
        <Node pos="r" depth="1" NCoef="0" IVar="0" Cut="1.5288079833984375e+02" cType="1" res="2.6844516396522522e-01" rms="3.6434409022331238e-01" purity="8.3064770698547363e-01" nType="0">
          <Node pos="l" depth="2" NCoef="0" IVar="7" Cut="2.5496471405029297e+01" cType="1" res="3.1076684594154358e-01" rms="3.1788197159767151e-01" purity="8.8164436817169189e-01" nType="0">
            <Node pos="l" depth="3" NCoef="0" IVar="4" Cut="4.2416263580322266e+01" cType="1" res="3.5381031036376953e-01" rms="2.4808713793754578e-01" purity="9.3279933929443359e-01" nType="0">
              <Node pos="l" depth="4" NCoef="0" IVar="-1" Cut="0.0000000000000000e+00" cType="1" res="1.4965346083045006e-02" rms="3.1078943610191345e-01" purity="8.9011353254318237e-01" nType="-99"/>
              <Node pos="r" depth="4" NCoef="0" IVar="-1" Cut="0.0000000000000000e+00" cType="1" res="1.7119675874710083e-02" rms="2.0099416375160217e-01" purity="9.5730286836624146e-01" nType="-99"/>
            </Node>
            <Node pos="r" depth="3" NCoef="0" IVar="2" Cut="1.9362911224365234e+01" cType="1" res="2.4884963035583496e-01" rms="3.8906624913215637e-01" purity="8.0805897712707520e-01" nType="0">
              <Node pos="l" depth="4" NCoef="0" IVar="-1" Cut="0.0000000000000000e+00" cType="1" res="1.5053522773087025e-02" rms="3.1572809815406799e-01" purity="8.8657069206237793e-01" nType="-99"/>
              <Node pos="r" depth="4" NCoef="0" IVar="-1" Cut="0.0000000000000000e+00" cType="1" res="6.5937591716647148e-03" rms="4.6151435375213623e-01" purity="6.8229264020919800e-01" nType="-99"/>
            </Node>
          </Node>
          <Node pos="r" depth="2" NCoef="0" IVar="-1" Cut="0.0000000000000000e+00" cType="1" res="1.6118785424623638e-04" rms="4.9987953901290894e-01" purity="5.1067006587982178e-01" nType="-99"/>
        </Node>
      </Node>
    </BinaryTree>
    <BinaryTree type="DecisionTree" boostWeight="1.0000000000000000e+00" itree="11">
      <Node pos="s" depth="0" NCoef="0" IVar="0" Cut="1.1601008605957031e+02" cType="1" res="2.4162661284208298e-02" rms="4.1970670223236084e-01" purity="4.9925217032432556e-01" nType="0">
        <Node pos="l" depth="1" NCoef="0" IVar="0" Cut="1.1020250701904297e+02" cType="1" res="-2.2124816477298737e-01" rms="3.1642132997512817e-01" purity="1.5451362729072571e-01" nType="0">
          <Node pos="l" depth="2" NCoef="0" IVar="3" Cut="4.4155750274658203e+01" cType="1" res="-2.7957862615585327e-01" rms="2.4119532108306885e-01" purity="7.4413105845451355e-02" nType="0">
            <Node pos="l" depth="3" NCoef="0" IVar="2" Cut="4.8521312713623047e+01" cType="1" res="-3.0209758877754211e-01" rms="1.7689138650894165e-01" purity="3.5663377493619919e-02" nType="0">
              <Node pos="l" depth="4" NCoef="0" IVar="0" Cut="9.3813667297363281e+01" cType="1" res="-2.9587566852569580e-01" rms="1.8306663632392883e-01" purity="3.9565749466419220e-02" nType="0">
                <Node pos="l" depth="5" NCoef="0" IVar="-1" Cut="0.0000000000000000e+00" cType="1" res="-2.4737855419516563e-02" rms="1.0263643413782120e-01" purity="1.0066946037113667e-02" nType="-99"/>
                <Node pos="r" depth="5" NCoef="0" IVar="-1" Cut="0.0000000000000000e+00" cType="1" res="-8.9666489511728287e-03" rms="3.6181586980819702e-01" purity="1.6637928783893585e-01" nType="-99"/>
              </Node>
              <Node pos="r" depth="4" NCoef="0" IVar="-1" Cut="0.0000000000000000e+00" cType="1" res="-3.2159544527530670e-02" rms="1.3168613612651825e-01" purity="1.3707771897315979e-02" nType="-99"/>
            </Node>
            <Node pos="r" depth="3" NCoef="0" IVar="-1" Cut="0.0000000000000000e+00" cType="1" res="-4.4006062671542168e-03" rms="4.2269054055213928e-01" purity="2.7049678564071655e-01" nType="-99"/>
          </Node>
          <Node pos="r" depth="2" NCoef="0" IVar="-1" Cut="0.0000000000000000e+00" cType="1" res="8.6424630135297775e-03" rms="4.5280140638351440e-01" purity="6.9783067703247070e-01" nType="-99"/>
        </Node>
        <Node pos="r" depth="1" NCoef="0" IVar="0" Cut="1.5160922241210938e+02" cType="1" res="2.5298324227333069e-01" rms="3.7219783663749695e-01" purity="8.2068568468093872e-01" nType="0">
          <Node pos="l" depth="2" NCoef="0" IVar="3" Cut="4.8373954772949219e+01" cType="1" res="2.9422679543495178e-01" rms="3.2937785983085632e-01" purity="8.7123709917068481e-01" nType="0">
            <Node pos="l" depth="3" NCoef="0" IVar="-1" Cut="0.0000000000000000e+00" cType="1" res="8.2640619948506355e-03" rms="4.0993773937225342e-01" purity="7.7221685647964478e-01" nType="-99"/>
            <Node pos="r" depth="3" NCoef="0" IVar="4" Cut="3.6613697052001953e+01" cType="1" res="3.2112386822700500e-01" rms="2.9596185684204102e-01" purity="9.0073847770690918e-01" nType="0">
              <Node pos="l" depth="4" NCoef="0" IVar="-1" Cut="0.0000000000000000e+00" cType="1" res="1.2332226149737835e-02" rms="3.6972454190254211e-01" purity="8.3421516418457031e-01" nType="-99"/>
              <Node pos="r" depth="4" NCoef="0" IVar="5" Cut="-1.7027731239795685e-01" cType="1" res="3.5291898250579834e-01" rms="2.3806208372116089e-01" purity="9.3886899948120117e-01" nType="0">
                <Node pos="l" depth="5" NCoef="0" IVar="-1" Cut="0.0000000000000000e+00" cType="1" res="1.5417952090501785e-02" rms="2.5699517130851746e-01" purity="9.2782437801361084e-01" nType="-99"/>
                <Node pos="r" depth="5" NCoef="0" IVar="-1" Cut="0.0000000000000000e+00" cType="1" res="1.7146525904536247e-02" rms="2.2008821368217468e-01" purity="9.4832587242126465e-01" nType="-99"/>
              </Node>
            </Node>
          </Node>
          <Node pos="r" depth="2" NCoef="0" IVar="-1" Cut="0.0000000000000000e+00" cType="1" res="-1.2104859342798591e-04" rms="4.9872636795043945e-01" purity="5.0814354419708252e-01" nType="-99"/>
        </Node>
      </Node>
    </BinaryTree>
    <BinaryTree type="DecisionTree" boostWeight="1.0000000000000000e+00" itree="12">
      <Node pos="s" depth="0" NCoef="0" IVar="0" Cut="1.1601008605957031e+02" cType="1" res="2.0918147638440132e-02" rms="4.1559460759162903e-01" purity="4.9547708034515381e-01" nType="0">
        <Node pos="l" depth="1" NCoef="0" IVar="0" Cut="1.0826817321777344e+02" cType="1" res="-2.1452637016773224e-01" rms="3.1299290060997009e-01" purity="1.5402734279632568e-01" nType="0">
          <Node pos="l" depth="2" NCoef="0" IVar="3" Cut="4.3133049011230469e+01" cType="1" res="-2.7766618132591248e-01" rms="2.2124148905277252e-01" purity="6.1361741274595261e-02" nType="0">
            <Node pos="l" depth="3" NCoef="0" IVar="3" Cut="3.0715108871459961e+01" cType="1" res="-2.9456296563148499e-01" rms="1.5713281929492950e-01" purity="2.7549564838409424e-02" nType="0">
              <Node pos="l" depth="4" NCoef="0" IVar="2" Cut="3.6391513824462891e+01" cType="1" res="-2.7958858013153076e-01" rms="1.2469067424535751e-01" purity="1.5508068725466728e-02" nType="0">
                <Node pos="l" depth="5" NCoef="0" IVar="-1" Cut="0.0000000000000000e+00" cType="1" res="-3.5781111568212509e-02" rms="1.4811299741268158e-01" purity="2.3911066353321075e-02" nType="-99"/>
                <Node pos="r" depth="5" NCoef="0" IVar="-1" Cut="0.0000000000000000e+00" cType="1" res="-1.8418885767459869e-02" rms="7.3585540056228638e-02" purity="2.7475664392113686e-03" nType="-99"/>
              </Node>
              <Node pos="r" depth="4" NCoef="0" IVar="5" Cut="-1.0069819167256355e-02" cType="1" res="-3.0378165841102600e-01" rms="1.7348307371139526e-01" purity="3.4962669014930725e-02" nType="0">
                <Node pos="l" depth="5" NCoef="0" IVar="-1" Cut="0.0000000000000000e+00" cType="1" res="-4.0141325443983078e-02" rms="1.0877547413110733e-01" purity="1.1477038264274597e-02" nType="-99"/>
                <Node pos="r" depth="5" NCoef="0" IVar="-1" Cut="0.0000000000000000e+00" cType="1" res="-2.3128004744648933e-02" rms="1.8968947231769562e-01" purity="4.2806405574083328e-02" nType="-99"/>
              </Node>
            </Node>
            <Node pos="r" depth="3" NCoef="0" IVar="-1" Cut="0.0000000000000000e+00" cType="1" res="-4.8537580296397209e-03" rms="4.0379327535629272e-01" purity="2.3263573646545410e-01" nType="-99"/>
          </Node>
          <Node pos="r" depth="2" NCoef="0" IVar="-1" Cut="0.0000000000000000e+00" cType="1" res="4.2702322825789452e-03" rms="4.7351038455963135e-01" purity="6.3311094045639038e-01" nType="-99"/>
        </Node>
        <Node pos="r" depth="1" NCoef="0" IVar="0" Cut="1.5160922241210938e+02" cType="1" res="2.4037839472293854e-01" rms="3.7757727503776550e-01" purity="8.1374597549438477e-01" nType="0">
          <Node pos="l" depth="2" NCoef="0" IVar="3" Cut="4.4350067138671875e+01" cType="1" res="2.7711087465286255e-01" rms="3.4004056453704834e-01" purity="8.6091536283493042e-01" nType="0">
            <Node pos="l" depth="3" NCoef="0" IVar="-1" Cut="0.0000000000000000e+00" cType="1" res="4.3608280830085278e-03" rms="4.5010352134704590e-01" purity="6.9461208581924438e-01" nType="-99"/>
            <Node pos="r" depth="3" NCoef="0" IVar="4" Cut="3.7770294189453125e+01" cType="1" res="3.0183988809585571e-01" rms="3.1160336732864380e-01" purity="8.8800293207168579e-01" nType="0">
              <Node pos="l" depth="4" NCoef="0" IVar="-1" Cut="0.0000000000000000e+00" cType="1" res="1.1196432635188103e-02" rms="3.8025519251823425e-01" purity="8.2122570276260376e-01" nType="-99"/>
              <Node pos="r" depth="4" NCoef="0" IVar="0" Cut="1.3136195373535156e+02" cType="1" res="3.3837917447090149e-01" rms="2.4975430965423584e-01" purity="9.3209564685821533e-01" nType="0">
                <Node pos="l" depth="5" NCoef="0" IVar="-1" Cut="0.0000000000000000e+00" cType="1" res="1.8184885382652283e-02" rms="2.2339913249015808e-01" purity="9.4614398479461670e-01" nType="-99"/>
                <Node pos="r" depth="5" NCoef="0" IVar="-1" Cut="0.0000000000000000e+00" cType="1" res="1.6047170385718346e-02" rms="2.7591526508331299e-01" purity="9.1626596450805664e-01" nType="-99"/>
              </Node>
            </Node>
          </Node>
          <Node pos="r" depth="2" NCoef="0" IVar="-1" Cut="0.0000000000000000e+00" cType="1" res="9.8331936169415712e-04" rms="4.9823766946792603e-01" purity="5.2705568075180054e-01" nType="-99"/>
        </Node>
      </Node>
    </BinaryTree>
    <BinaryTree type="DecisionTree" boostWeight="1.0000000000000000e+00" itree="13">
      <Node pos="s" depth="0" NCoef="0" IVar="0" Cut="1.1733056640625000e+02" cType="1" res="2.9444271698594093e-02" rms="4.0881952643394470e-01" purity="5.0572609901428223e-01" nType="0">
        <Node pos="l" depth="1" NCoef="0" IVar="0" Cut="1.0960256195068359e+02" cType="1" res="-2.0495954155921936e-01" rms="3.0982956290245056e-01" purity="1.5790146589279175e-01" nType="0">
          <Node pos="l" depth="2" NCoef="0" IVar="0" Cut="1.0069953918457031e+02" cType="1" res="-2.6648649573326111e-01" rms="2.1987994015216827e-01" purity="6.2017247080802917e-02" nType="0">
            <Node pos="l" depth="3" NCoef="0" IVar="3" Cut="3.1436458587646484e+01" cType="1" res="-2.8366947174072266e-01" rms="1.4192782342433929e-01" purity="2.1533513441681862e-02" nType="0">
              <Node pos="l" depth="4" NCoef="0" IVar="3" Cut="2.9327901840209961e+01" cType="1" res="-2.6679793000221252e-01" rms="1.0024527460336685e-01" purity="9.8375072702765465e-03" nType="0">
                <Node pos="l" depth="5" NCoef="0" IVar="-1" Cut="0.0000000000000000e+00" cType="1" res="-3.4050900489091873e-02" rms="1.0888367146253586e-01" purity="1.1824600398540497e-02" nType="-99"/>
                <Node pos="r" depth="5" NCoef="0" IVar="-1" Cut="0.0000000000000000e+00" cType="1" res="-2.5314990431070328e-02" rms="8.9328378438949585e-02" purity="7.6516927219927311e-03" nType="-99"/>
              </Node>
              <Node pos="r" depth="4" NCoef="0" IVar="5" Cut="2.4437360763549805e+00" cType="1" res="-2.9583308100700378e-01" rms="1.6452334821224213e-01" purity="2.9965799301862717e-02" nType="0">
                <Node pos="l" depth="5" NCoef="0" IVar="-1" Cut="0.0000000000000000e+00" cType="1" res="-2.3984646424651146e-02" rms="1.8234474956989288e-01" purity="3.8084693253040314e-02" nType="-99"/>
                <Node pos="r" depth="5" NCoef="0" IVar="-1" Cut="0.0000000000000000e+00" cType="1" res="-1.7296073958277702e-02" rms="1.1986950784921646e-01" purity="1.3594980351626873e-02" nType="-99"/>
              </Node>
            </Node>
            <Node pos="r" depth="3" NCoef="0" IVar="-1" Cut="0.0000000000000000e+00" cType="1" res="-6.1725103296339512e-03" rms="4.4903022050857544e-01" purity="2.9904744029045105e-01" nType="-99"/>
          </Node>
          <Node pos="r" depth="2" NCoef="0" IVar="-1" Cut="0.0000000000000000e+00" cType="1" res="3.3213051501661539e-03" rms="4.7011712193489075e-01" purity="6.4307814836502075e-01" nType="-99"/>
        </Node>
        <Node pos="r" depth="1" NCoef="0" IVar="0" Cut="1.5287879943847656e+02" cType="1" res="2.4216453731060028e-01" rms="3.6956644058227539e-01" purity="8.2137525081634521e-01" nType="0">
          <Node pos="l" depth="2" NCoef="0" IVar="2" Cut="4.3231941223144531e+01" cType="1" res="2.8210765123367310e-01" rms="3.2791689038276672e-01" purity="8.7173932790756226e-01" nType="0">
            <Node pos="l" depth="3" NCoef="0" IVar="4" Cut="3.4622718811035156e+01" cType="1" res="3.0276399850845337e-01" rms="3.0256837606430054e-01" purity="8.9456975460052490e-01" nType="0">
              <Node pos="l" depth="4" NCoef="0" IVar="-1" Cut="0.0000000000000000e+00" cType="1" res="1.0025424882769585e-02" rms="3.8390991091728210e-01" purity="8.1572121381759644e-01" nType="-99"/>
              <Node pos="r" depth="4" NCoef="0" IVar="4" Cut="4.3869560241699219e+01" cType="1" res="3.3417037129402161e-01" rms="2.4690422415733337e-01" purity="9.3354874849319458e-01" nType="0">
                <Node pos="l" depth="5" NCoef="0" IVar="-1" Cut="0.0000000000000000e+00" cType="1" res="1.4225442893803120e-02" rms="2.9428538680076599e-01" purity="9.0252590179443359e-01" nType="-99"/>
                <Node pos="r" depth="5" NCoef="0" IVar="-1" Cut="0.0000000000000000e+00" cType="1" res="1.8044013530015945e-02" rms="1.9595964252948761e-01" purity="9.5976668596267700e-01" nType="-99"/>
              </Node>
            </Node>
            <Node pos="r" depth="3" NCoef="0" IVar="-1" Cut="0.0000000000000000e+00" cType="1" res="4.0510031394660473e-03" rms="4.4324478507041931e-01" purity="7.0963412523269653e-01" nType="-99"/>
          </Node>
          <Node pos="r" depth="2" NCoef="0" IVar="-1" Cut="0.0000000000000000e+00" cType="1" res="-2.1428633481264114e-03" rms="4.9953246116638184e-01" purity="4.7857519984245300e-01" nType="-99"/>
        </Node>
      </Node>
    </BinaryTree>
    <BinaryTree type="DecisionTree" boostWeight="1.0000000000000000e+00" itree="14">
      <Node pos="s" depth="0" NCoef="0" IVar="0" Cut="1.0538497161865234e+02" cType="1" res="2.6075381785631180e-02" rms="4.0604391694068909e-01" purity="5.0172299146652222e-01" nType="0">
        <Node pos="l" depth="1" NCoef="0" IVar="2" Cut="4.7782630920410156e+01" cType="1" res="-2.7627322077751160e-01" rms="1.8074901401996613e-01" purity="3.7224281579256058e-02" nType="0">
          <Node pos="l" depth="2" NCoef="0" IVar="3" Cut="3.1946414947509766e+01" cType="1" res="-2.6935061812400818e-01" rms="1.9253227114677429e-01" purity="4.3525002896785736e-02" nType="0">
            <Node pos="l" depth="3" NCoef="0" IVar="5" Cut="1.6736818552017212e+00" cType="1" res="-2.5595140457153320e-01" rms="1.1724220961332321e-01" purity="1.3707376085221767e-02" nType="0">
              <Node pos="l" depth="4" NCoef="0" IVar="-1" Cut="0.0000000000000000e+00" cType="1" res="-1.8017265945672989e-02" rms="1.0324227809906006e-01" purity="9.1611184179782867e-03" nType="-99"/>
              <Node pos="r" depth="4" NCoef="0" IVar="-1" Cut="0.0000000000000000e+00" cType="1" res="-3.6592029035091400e-02" rms="1.2824337184429169e-01" purity="1.7804142087697983e-02" nType="-99"/>
            </Node>
            <Node pos="r" depth="3" NCoef="0" IVar="0" Cut="9.6502662658691406e+01" cType="1" res="-2.7792152762413025e-01" rms="2.2759394347667694e-01" purity="6.2597982585430145e-02" nType="0">
              <Node pos="l" depth="4" NCoef="0" IVar="2" Cut="1.7788599014282227e+01" cType="1" res="-2.9074120521545410e-01" rms="1.2718655169010162e-01" purity="1.6869118437170982e-02" nType="0">
                <Node pos="l" depth="5" NCoef="0" IVar="-1" Cut="0.0000000000000000e+00" cType="1" res="-2.4022327736020088e-02" rms="1.1600855737924576e-01" purity="1.4123932458460331e-02" nType="-99"/>
                <Node pos="r" depth="5" NCoef="0" IVar="-1" Cut="0.0000000000000000e+00" cType="1" res="-4.2847316712141037e-02" rms="1.3710144162178040e-01" purity="2.0013015717267990e-02" nType="-99"/>
              </Node>
              <Node pos="r" depth="4" NCoef="0" IVar="-1" Cut="0.0000000000000000e+00" cType="1" res="-6.1917207203805447e-03" rms="3.8109722733497620e-01" purity="1.8460701406002045e-01" nType="-99"/>
            </Node>
          </Node>
          <Node pos="r" depth="2" NCoef="0" IVar="-1" Cut="0.0000000000000000e+00" cType="1" res="-6.1891782097518444e-03" rms="7.1739658713340759e-02" purity="5.2591104758903384e-04" nType="-99"/>
        </Node>
        <Node pos="r" depth="1" NCoef="0" IVar="2" Cut="4.6346233367919922e+01" cType="1" res="2.0939993858337402e-01" rms="3.9496102929115295e-01" purity="7.8336483240127563e-01" nType="0">
          <Node pos="l" depth="2" NCoef="0" IVar="4" Cut="3.1382961273193359e+01" cType="1" res="2.3856405913829803e-01" rms="3.7370166182518005e-01" purity="8.1596446037292480e-01" nType="0">
            <Node pos="l" depth="3" NCoef="0" IVar="-1" Cut="0.0000000000000000e+00" cType="1" res="2.9327282682061195e-03" rms="4.5665624737739563e-01" purity="6.9102883338928223e-01" nType="-99"/>
            <Node pos="r" depth="3" NCoef="0" IVar="0" Cut="1.4843962097167969e+02" cType="1" res="2.7050700783729553e-01" rms="3.3822152018547058e-01" purity="8.5382002592086792e-01" nType="0">
              <Node pos="l" depth="4" NCoef="0" IVar="4" Cut="4.3900619506835938e+01" cType="1" res="2.9904267191886902e-01" rms="3.0083918571472168e-01" purity="8.9111006259918213e-01" nType="0">
                <Node pos="l" depth="5" NCoef="0" IVar="-1" Cut="0.0000000000000000e+00" cType="1" res="1.1543871834874153e-02" rms="3.5223287343978882e-01" purity="8.4319508075714111e-01" nType="-99"/>
                <Node pos="r" depth="5" NCoef="0" IVar="-1" Cut="0.0000000000000000e+00" cType="1" res="1.4229354448616505e-02" rms="2.0745165646076202e-01" purity="9.5309871435165405e-01" nType="-99"/>
              </Node>
              <Node pos="r" depth="4" NCoef="0" IVar="-1" Cut="0.0000000000000000e+00" cType="1" res="4.8153195530176163e-03" rms="4.7910887002944946e-01" purity="6.1272948980331421e-01" nType="-99"/>
            </Node>
          </Node>
          <Node pos="r" depth="2" NCoef="0" IVar="-1" Cut="0.0000000000000000e+00" cType="1" res="8.8315891844104044e-06" rms="4.7259816527366638e-01" purity="5.4950886964797974e-01" nType="-99"/>
        </Node>
      </Node>
    </BinaryTree>
    <BinaryTree type="DecisionTree" boostWeight="1.0000000000000000e+00" itree="15">
      <Node pos="s" depth="0" NCoef="0" IVar="0" Cut="1.0055562591552734e+02" cType="1" res="2.6940403506159782e-02" rms="4.0198218822479248e-01" purity="5.0224536657333374e-01" nType="0">
        <Node pos="l" depth="1" NCoef="0" IVar="3" Cut="3.1946687698364258e+01" cType="1" res="-2.6364794373512268e-01" rms="1.4260712265968323e-01" purity="2.2201456129550934e-02" nType="0">
          <Node pos="l" depth="2" NCoef="0" IVar="3" Cut="2.9668745040893555e+01" cType="1" res="-2.4882996082305908e-01" rms="1.0175877064466476e-01" purity="1.0278254747390747e-02" nType="0">
            <Node pos="l" depth="3" NCoef="0" IVar="-1" Cut="0.0000000000000000e+00" cType="1" res="-3.6263145506381989e-02" rms="1.1545851081609726e-01" purity="1.3582305051386356e-02" nType="-99"/>
            <Node pos="r" depth="3" NCoef="0" IVar="-1" Cut="0.0000000000000000e+00" cType="1" res="-2.4092933163046837e-02" rms="7.7553018927574158e-02" purity="5.7188663631677628e-03" nType="-99"/>
          </Node>
          <Node pos="r" depth="2" NCoef="0" IVar="2" Cut="9.1358203887939453e+00" cType="1" res="-2.7555102109909058e-01" rms="1.6744275391101837e-01" purity="3.1779196113348007e-02" nType="0">
            <Node pos="l" depth="3" NCoef="0" IVar="-1" Cut="0.0000000000000000e+00" cType="1" res="-1.2809813022613525e-02" rms="1.7740884423255920e-01" purity="3.5617593675851822e-02" nType="-99"/>
            <Node pos="r" depth="3" NCoef="0" IVar="2" Cut="2.3860282897949219e+01" cType="1" res="-2.6958552002906799e-01" rms="1.6286127269268036e-01" purity="3.0227134004235268e-02" nType="0">
              <Node pos="l" depth="4" NCoef="0" IVar="-1" Cut="0.0000000000000000e+00" cType="1" res="-1.9169943407177925e-02" rms="2.0562231540679932e-01" purity="5.2074886858463287e-02" nType="-99"/>
              <Node pos="r" depth="4" NCoef="0" IVar="-1" Cut="0.0000000000000000e+00" cType="1" res="-2.7201736345887184e-02" rms="1.1221267282962799e-01" purity="1.1132846586406231e-02" nType="-99"/>
            </Node>
          </Node>
        </Node>
        <Node pos="r" depth="1" NCoef="0" IVar="0" Cut="1.1883852386474609e+02" cType="1" res="1.7110474407672882e-01" rms="4.1108524799346924e-01" purity="7.4040091037750244e-01" nType="0">
          <Node pos="l" depth="2" NCoef="0" IVar="2" Cut="2.0869014739990234e+01" cType="1" res="-8.9891953393816948e-03" rms="4.7163972258567810e-01" purity="5.0471377372741699e-01" nType="0">
            <Node pos="l" depth="3" NCoef="0" IVar="-1" Cut="0.0000000000000000e+00" cType="1" res="5.9157963842153549e-03" rms="4.4567424058914185e-01" purity="6.8235564231872559e-01" nType="-99"/>
            <Node pos="r" depth="3" NCoef="0" IVar="-1" Cut="0.0000000000000000e+00" cType="1" res="-4.4484566897153854e-03" rms="4.0885281562805176e-01" purity="2.5342351198196411e-01" nType="-99"/>
          </Node>
          <Node pos="r" depth="2" NCoef="0" IVar="0" Cut="1.5469233703613281e+02" cType="1" res="2.3295597732067108e-01" rms="3.6833226680755615e-01" purity="8.2134497165679932e-01" nType="0">
            <Node pos="l" depth="3" NCoef="0" IVar="4" Cut="3.1383481979370117e+01" cType="1" res="2.7134558558464050e-01" rms="3.2823899388313293e-01" purity="8.7097257375717163e-01" nType="0">
              <Node pos="l" depth="4" NCoef="0" IVar="-1" Cut="0.0000000000000000e+00" cType="1" res="2.6343036442995071e-03" rms="4.4151991605758667e-01" purity="7.2777444124221802e-01" nType="-99"/>
              <Node pos="r" depth="4" NCoef="0" IVar="2" Cut="3.0978933334350586e+01" cType="1" res="2.9845070838928223e-01" rms="2.8988409042358398e-01" purity="9.0336585044860840e-01" nType="0">
                <Node pos="l" depth="5" NCoef="0" IVar="-1" Cut="0.0000000000000000e+00" cType="1" res="1.5392256900668144e-02" rms="2.5857958197593689e-01" purity="9.2624312639236450e-01" nType="-99"/>
                <Node pos="r" depth="5" NCoef="0" IVar="-1" Cut="0.0000000000000000e+00" cType="1" res="1.0237513110041618e-02" rms="3.5754483938217163e-01" purity="8.4063011407852173e-01" nType="-99"/>
              </Node>
            </Node>
            <Node pos="r" depth="3" NCoef="0" IVar="-1" Cut="0.0000000000000000e+00" cType="1" res="-2.5032241828739643e-03" rms="4.9908646941184998e-01" purity="4.6999683976173401e-01" nType="-99"/>
          </Node>
        </Node>
      </Node>
    </BinaryTree>
    <BinaryTree type="DecisionTree" boostWeight="1.0000000000000000e+00" itree="16">
      <Node pos="s" depth="0" NCoef="0" IVar="0" Cut="1.1374225616455078e+02" cType="1" res="3.3444616943597794e-02" rms="3.9704567193984985e-01" purity="5.0633656978607178e-01" nType="0">
        <Node pos="l" depth="1" NCoef="0" IVar="0" Cut="1.0403621673583984e+02" cType="1" res="-2.1451582014560699e-01" rms="2.7004539966583252e-01" purity="1.0825694352388382e-01" nType="0">
          <Node pos="l" depth="2" NCoef="0" IVar="7" Cut="2.3244918823242188e+01" cType="1" res="-2.5130236148834229e-01" rms="1.7737376689910889e-01" purity="3.6193177103996277e-02" nType="0">
            <Node pos="l" depth="3" NCoef="0" IVar="7" Cut="1.4144195556640625e+01" cType="1" res="-2.4639454483985901e-01" rms="1.8149532377719879e-01" purity="3.8605201989412308e-02" nType="0">
              <Node pos="l" depth="4" NCoef="0" IVar="0" Cut="9.0023384094238281e+01" cType="1" res="-2.3929993808269501e-01" rms="1.8966236710548401e-01" purity="4.3140627443790436e-02" nType="0">
                <Node pos="l" depth="5" NCoef="0" IVar="-1" Cut="0.0000000000000000e+00" cType="1" res="-3.5370104014873505e-02" rms="1.0114732384681702e-01" purity="1.0029201395809650e-02" nType="-99"/>
                <Node pos="r" depth="5" NCoef="0" IVar="-1" Cut="0.0000000000000000e+00" cType="1" res="-4.9319514073431492e-03" rms="3.4384435415267944e-01" purity="1.5041106939315796e-01" nType="-99"/>
              </Node>
              <Node pos="r" depth="4" NCoef="0" IVar="-1" Cut="0.0000000000000000e+00" cType="1" res="-1.9875781610608101e-02" rms="1.5955166518688202e-01" purity="2.7996029704809189e-02" nType="-99"/>
            </Node>
            <Node pos="r" depth="3" NCoef="0" IVar="-1" Cut="0.0000000000000000e+00" cType="1" res="-3.8431469351053238e-02" rms="1.5341421961784363e-01" purity="2.4399774149060249e-02" nType="-99"/>
          </Node>
          <Node pos="r" depth="2" NCoef="0" IVar="-1" Cut="0.0000000000000000e+00" cType="1" res="-1.3368224026635289e-03" rms="4.8946610093116760e-01" purity="4.6839874982833862e-01" nType="-99"/>
        </Node>
        <Node pos="r" depth="1" NCoef="0" IVar="0" Cut="1.4942481994628906e+02" cType="1" res="2.2653539478778839e-01" rms="3.7209644913673401e-01" purity="8.1632751226425171e-01" nType="0">
          <Node pos="l" depth="2" NCoef="0" IVar="4" Cut="3.4418930053710938e+01" cType="1" res="2.5650879740715027e-01" rms="3.3868771791458130e-01" purity="8.5884904861450195e-01" nType="0">
            <Node pos="l" depth="3" NCoef="0" IVar="-1" Cut="0.0000000000000000e+00" cType="1" res="5.4587153717875481e-03" rms="4.2747101187705994e-01" purity="7.4575382471084595e-01" nType="-99"/>
            <Node pos="r" depth="3" NCoef="0" IVar="2" Cut="3.1337953567504883e+01" cType="1" res="2.9604268074035645e-01" rms="2.8319117426872253e-01" purity="9.0760332345962524e-01" nType="0">
              <Node pos="l" depth="4" NCoef="0" IVar="2" Cut="1.2285004615783691e+01" cType="1" res="3.2010957598686218e-01" rms="2.4098582565784454e-01" purity="9.3704992532730103e-01" nType="0">
                <Node pos="l" depth="5" NCoef="0" IVar="-1" Cut="0.0000000000000000e+00" cType="1" res="1.5233830548822880e-02" rms="2.1109436452388763e-01" purity="9.5338320732116699e-01" nType="-99"/>
                <Node pos="r" depth="5" NCoef="0" IVar="-1" Cut="0.0000000000000000e+00" cType="1" res="1.5160190872848034e-02" rms="2.6800343394279480e-01" purity="9.1984307765960693e-01" nType="-99"/>
              </Node>
              <Node pos="r" depth="4" NCoef="0" IVar="-1" Cut="0.0000000000000000e+00" cType="1" res="1.2784551829099655e-02" rms="3.6606833338737488e-01" purity="8.2831674814224243e-01" nType="-99"/>
            </Node>
          </Node>
          <Node pos="r" depth="2" NCoef="0" IVar="-1" Cut="0.0000000000000000e+00" cType="1" res="3.5584042780101299e-03" rms="4.8566651344299316e-01" purity="5.8595180511474609e-01" nType="-99"/>
        </Node>
      </Node>
    </BinaryTree>
    <BinaryTree type="DecisionTree" boostWeight="1.0000000000000000e+00" itree="17">
      <Node pos="s" depth="0" NCoef="0" IVar="0" Cut="1.1601008605957031e+02" cType="1" res="2.9976185411214828e-02" rms="3.9340922236442566e-01" purity="5.0251555442810059e-01" nType="0">
        <Node pos="l" depth="1" NCoef="0" IVar="0" Cut="1.1020250701904297e+02" cType="1" res="-1.8595108389854431e-01" rms="2.9558032751083374e-01" purity="1.4392773807048798e-01" nType="0">
          <Node pos="l" depth="2" NCoef="0" IVar="2" Cut="2.3892028808593750e+01" cType="1" res="-2.2804175317287445e-01" rms="2.3134632408618927e-01" purity="7.1702621877193451e-02" nType="0">
            <Node pos="l" depth="3" NCoef="0" IVar="0" Cut="9.5634727478027344e+01" cType="1" res="-1.8839661777019501e-01" rms="2.8844884037971497e-01" purity="1.2418223917484283e-01" nType="0">
              <Node pos="l" depth="4" NCoef="0" IVar="3" Cut="3.3095008850097656e+01" cType="1" res="-2.4142012000083923e-01" rms="1.5487585961818695e-01" purity="2.5075962767004967e-02" nType="0">
                <Node pos="l" depth="5" NCoef="0" IVar="-1" Cut="0.0000000000000000e+00" cType="1" res="-2.1954311057925224e-02" rms="1.3189373910427094e-01" purity="1.7376678064465523e-02" nType="-99"/>
                <Node pos="r" depth="5" NCoef="0" IVar="-1" Cut="0.0000000000000000e+00" cType="1" res="-2.1096585318446159e-02" rms="1.7215430736541748e-01" purity="3.2063566148281097e-02" nType="-99"/>
              </Node>
              <Node pos="r" depth="4" NCoef="0" IVar="-1" Cut="0.0000000000000000e+00" cType="1" res="-1.4710649847984314e-03" rms="4.7089102864265442e-01" purity="4.0815493464469910e-01" nType="-99"/>
            </Node>
            <Node pos="r" depth="3" NCoef="0" IVar="0" Cut="9.5940475463867188e+01" cType="1" res="-2.6878458261489868e-01" rms="1.4050783216953278e-01" purity="1.7769943922758102e-02" nType="0">
              <Node pos="l" depth="4" NCoef="0" IVar="0" Cut="8.5421905517578125e+01" cType="1" res="-2.3429481685161591e-01" rms="4.8965461552143097e-02" purity="1.8573182169348001e-03" nType="0">
                <Node pos="l" depth="5" NCoef="0" IVar="-1" Cut="0.0000000000000000e+00" cType="1" res="-4.1222415864467621e-02" rms="1.2865399010479450e-02" purity="0.0000000000000000e+00" nType="-99"/>
                <Node pos="r" depth="5" NCoef="0" IVar="-1" Cut="0.0000000000000000e+00" cType="1" res="-2.9988391324877739e-02" rms="7.0417657494544983e-02" purity="4.5212097465991974e-03" nType="-99"/>
              </Node>
              <Node pos="r" depth="4" NCoef="0" IVar="-1" Cut="0.0000000000000000e+00" cType="1" res="-8.2160579040646553e-03" rms="2.2789186239242554e-01" purity="5.6374803185462952e-02" nType="-99"/>
            </Node>
          </Node>
          <Node pos="r" depth="2" NCoef="0" IVar="-1" Cut="0.0000000000000000e+00" cType="1" res="3.4624889958649874e-03" rms="4.7309526801109314e-01" purity="6.3744139671325684e-01" nType="-99"/>
        </Node>
        <Node pos="r" depth="1" NCoef="0" IVar="0" Cut="1.5160974121093750e+02" cType="1" res="2.2025592625141144e-01" rms="3.6996605992317200e-01" purity="8.1851089000701904e-01" nType="0">
          <Node pos="l" depth="2" NCoef="0" IVar="2" Cut="4.3231941223144531e+01" cType="1" res="2.5047162175178528e-01" rms="3.3636182546615601e-01" purity="8.6167120933532715e-01" nType="0">
            <Node pos="l" depth="3" NCoef="0" IVar="4" Cut="3.4622718811035156e+01" cType="1" res="2.7082094550132751e-01" rms="3.1190434098243713e-01" purity="8.8561755418777466e-01" nType="0">
              <Node pos="l" depth="4" NCoef="0" IVar="-1" Cut="0.0000000000000000e+00" cType="1" res="6.9280173629522324e-03" rms="4.0479743480682373e-01" purity="7.8640258312225342e-01" nType="-99"/>
              <Node pos="r" depth="4" NCoef="0" IVar="1" Cut="6.9600570678710938e+01" cType="1" res="3.0654162168502808e-01" rms="2.4784734845161438e-01" purity="9.3318384885787964e-01" nType="0">
                <Node pos="l" depth="5" NCoef="0" IVar="-1" Cut="0.0000000000000000e+00" cType="1" res="1.3718887232244015e-02" rms="2.1353873610496521e-01" purity="9.5147103071212769e-01" nType="-99"/>
                <Node pos="r" depth="5" NCoef="0" IVar="-1" Cut="0.0000000000000000e+00" cType="1" res="1.4551532454788685e-02" rms="2.9568710923194885e-01" purity="9.0206921100616455e-01" nType="-99"/>
              </Node>
            </Node>
            <Node pos="r" depth="3" NCoef="0" IVar="-1" Cut="0.0000000000000000e+00" cType="1" res="2.5858939625322819e-03" rms="4.4894948601722717e-01" purity="6.9250077009201050e-01" nType="-99"/>
          </Node>
          <Node pos="r" depth="2" NCoef="0" IVar="-1" Cut="0.0000000000000000e+00" cType="1" res="1.4017926296219230e-03" rms="4.9693837761878967e-01" purity="5.3678488731384277e-01" nType="-99"/>
        </Node>
      </Node>
    </BinaryTree>
    <BinaryTree type="DecisionTree" boostWeight="1.0000000000000000e+00" itree="18">
      <Node pos="s" depth="0" NCoef="0" IVar="0" Cut="1.0956095886230469e+02" cType="1" res="3.8125921040773392e-02" rms="3.8633829355239868e-01" purity="5.0846302509307861e-01" nType="0">
        <Node pos="l" depth="1" NCoef="0" IVar="0" Cut="1.0070429992675781e+02" cType="1" res="-2.2354274988174438e-01" rms="2.1359406411647797e-01" purity="6.1421796679496765e-02" nType="0">
          <Node pos="l" depth="2" NCoef="0" IVar="3" Cut="3.1144945144653320e+01" cType="1" res="-2.3808401823043823e-01" rms="1.2798744440078735e-01" purity="1.6810091212391853e-02" nType="0">
            <Node pos="l" depth="3" NCoef="0" IVar="5" Cut="2.9485418796539307e+00" cType="1" res="-2.1341297030448914e-01" rms="9.1916859149932861e-02" purity="8.2541098818182945e-03" nType="0">
              <Node pos="l" depth="4" NCoef="0" IVar="-1" Cut="0.0000000000000000e+00" cType="1" res="-2.7886407449841499e-02" rms="8.2836322486400604e-02" purity="6.8366895429790020e-03" nType="-99"/>
              <Node pos="r" depth="4" NCoef="0" IVar="-1" Cut="0.0000000000000000e+00" cType="1" res="-3.8314905017614365e-02" rms="1.0403927415609360e-01" purity="1.0485042817890644e-02" nType="-99"/>
            </Node>
            <Node pos="r" depth="3" NCoef="0" IVar="1" Cut="3.6618965148925781e+01" cType="1" res="-2.5417447090148926e-01" rms="1.4456212520599365e-01" purity="2.2390294820070267e-02" nType="0">
              <Node pos="l" depth="4" NCoef="0" IVar="7" Cut="1.1745886802673340e+01" cType="1" res="-2.4508143961429596e-01" rms="1.3322983682155609e-01" purity="1.9448336213827133e-02" nType="0">
                <Node pos="l" depth="5" NCoef="0" IVar="-1" Cut="0.0000000000000000e+00" cType="1" res="-2.4024819955229759e-02" rms="1.5761770308017731e-01" purity="2.8637241572141647e-02" nType="-99"/>
                <Node pos="r" depth="5" NCoef="0" IVar="-1" Cut="0.0000000000000000e+00" cType="1" res="-2.8947684913873672e-02" rms="7.0239819586277008e-02" purity="3.1733454670757055e-03" nType="-99"/>
              </Node>
              <Node pos="r" depth="4" NCoef="0" IVar="-1" Cut="0.0000000000000000e+00" cType="1" res="-1.7828324809670448e-02" rms="1.6487050056457520e-01" purity="2.8797881677746773e-02" nType="-99"/>
            </Node>
          </Node>
          <Node pos="r" depth="2" NCoef="0" IVar="-1" Cut="0.0000000000000000e+00" cType="1" res="-3.4793808590620756e-03" rms="4.4741019606590271e-01" purity="3.0893155932426453e-01" nType="-99"/>
        </Node>
        <Node pos="r" depth="1" NCoef="0" IVar="0" Cut="1.5405825805664062e+02" cType="1" res="2.1376855671405792e-01" rms="3.7684303522109985e-01" purity="8.0853521823883057e-01" nType="0">
          <Node pos="l" depth="2" NCoef="0" IVar="3" Cut="4.1033435821533203e+01" cType="1" res="2.3800085484981537e-01" rms="3.5123535990715027e-01" purity="8.4333121776580811e-01" nType="0">
            <Node pos="l" depth="3" NCoef="0" IVar="-1" Cut="0.0000000000000000e+00" cType="1" res="2.7243001386523247e-03" rms="4.6327319741249084e-01" purity="6.2327504158020020e-01" nType="-99"/>
            <Node pos="r" depth="3" NCoef="0" IVar="4" Cut="3.6056068420410156e+01" cType="1" res="2.5971296429634094e-01" rms="3.2908782362937927e-01" purity="8.6864709854125977e-01" nType="0">
              <Node pos="l" depth="4" NCoef="0" IVar="2" Cut="1.3997280120849609e+01" cType="1" res="2.0142844319343567e-01" rms="4.0119418501853943e-01" purity="7.8967374563217163e-01" nType="0">
                <Node pos="l" depth="5" NCoef="0" IVar="-1" Cut="0.0000000000000000e+00" cType="1" res="1.1349977925419807e-02" rms="3.4522119164466858e-01" purity="8.5979491472244263e-01" nType="-99"/>
                <Node pos="r" depth="5" NCoef="0" IVar="-1" Cut="0.0000000000000000e+00" cType="1" res="3.4284787252545357e-03" rms="4.6234780550003052e-01" purity="6.6729372739791870e-01" nType="-99"/>
              </Node>
              <Node pos="r" depth="4" NCoef="0" IVar="5" Cut="-3.8131317496299744e-01" cType="1" res="2.9251340031623840e-01" rms="2.7509477734565735e-01" purity="9.1309046745300293e-01" nType="0">
                <Node pos="l" depth="5" NCoef="0" IVar="-1" Cut="0.0000000000000000e+00" cType="1" res="1.2480223551392555e-02" rms="3.1984439492225647e-01" purity="8.7510156631469727e-01" nType="-99"/>
                <Node pos="r" depth="5" NCoef="0" IVar="-1" Cut="0.0000000000000000e+00" cType="1" res="1.5026093460619450e-02" rms="2.4437646567821503e-01" purity="9.3390351533889771e-01" nType="-99"/>
              </Node>
            </Node>
          </Node>
          <Node pos="r" depth="2" NCoef="0" IVar="-1" Cut="0.0000000000000000e+00" cType="1" res="9.7481423290446401e-04" rms="4.9875834584236145e-01" purity="5.3067821264266968e-01" nType="-99"/>
        </Node>
      </Node>
    </BinaryTree>
    <BinaryTree type="DecisionTree" boostWeight="1.0000000000000000e+00" itree="19">
      <Node pos="s" depth="0" NCoef="0" IVar="0" Cut="1.1465605163574219e+02" cType="1" res="3.5791132599115372e-02" rms="3.8407728075981140e-01" purity="5.0452762842178345e-01" nType="0">
        <Node pos="l" depth="1" NCoef="0" IVar="3" Cut="4.7980251312255859e+01" cType="1" res="-1.7712211608886719e-01" rms="2.7732691168785095e-01" purity="1.2534606456756592e-01" nType="0">
          <Node pos="l" depth="2" NCoef="0" IVar="2" Cut="4.3668243408203125e+01" cType="1" res="-2.1824704110622406e-01" rms="2.0936225354671478e-01" purity="5.8540642261505127e-02" nType="0">
            <Node pos="l" depth="3" NCoef="0" IVar="0" Cut="9.7040580749511719e+01" cType="1" res="-2.0346350967884064e-01" rms="2.2223593294620514e-01" purity="7.0763491094112396e-02" nType="0">
              <Node pos="l" depth="4" NCoef="0" IVar="3" Cut="3.2561069488525391e+01" cType="1" res="-2.2252605855464935e-01" rms="1.1636476963758469e-01" purity="1.2973220087587833e-02" nType="0">
                <Node pos="l" depth="5" NCoef="0" IVar="-1" Cut="0.0000000000000000e+00" cType="1" res="-3.0825752764940262e-02" rms="1.1175350099802017e-01" purity="1.2357995845377445e-02" nType="-99"/>
                <Node pos="r" depth="5" NCoef="0" IVar="-1" Cut="0.0000000000000000e+00" cType="1" res="-1.7412127926945686e-02" rms="1.1649336665868759e-01" purity="1.3549165800213814e-02" nType="-99"/>
              </Node>
              <Node pos="r" depth="4" NCoef="0" IVar="-1" Cut="0.0000000000000000e+00" cType="1" res="-5.9863687492907047e-03" rms="4.4850426912307739e-01" purity="3.2982379198074341e-01" nType="-99"/>
            </Node>
            <Node pos="r" depth="3" NCoef="0" IVar="-1" Cut="0.0000000000000000e+00" cType="1" res="-1.2744016945362091e-02" rms="1.3593171536922455e-01" purity="1.1675173416733742e-02" nType="-99"/>
          </Node>
          <Node pos="r" depth="2" NCoef="0" IVar="-1" Cut="0.0000000000000000e+00" cType="1" res="3.0482565052807331e-03" rms="4.5528042316436768e-01" purity="5.4464739561080933e-01" nType="-99"/>
        </Node>
        <Node pos="r" depth="1" NCoef="0" IVar="0" Cut="1.5067153930664062e+02" cType="1" res="2.1102857589721680e-01" rms="3.7095570564270020e-01" purity="8.1661158800125122e-01" nType="0">
          <Node pos="l" depth="2" NCoef="0" IVar="7" Cut="2.9545185089111328e+01" cType="1" res="2.3981052637100220e-01" rms="3.3749383687973022e-01" purity="8.6019158363342285e-01" nType="0">
            <Node pos="l" depth="3" NCoef="0" IVar="4" Cut="4.1665870666503906e+01" cType="1" res="2.7314573526382446e-01" rms="2.9196214675903320e-01" purity="9.0189141035079956e-01" nType="0">
              <Node pos="l" depth="4" NCoef="0" IVar="-1" Cut="0.0000000000000000e+00" cType="1" res="1.0241037234663963e-02" rms="3.5095265507698059e-01" purity="8.5025960206985474e-01" nType="-99"/>
              <Node pos="r" depth="4" NCoef="0" IVar="-1" Cut="0.0000000000000000e+00" cType="1" res="1.4410976320505142e-02" rms="2.3716646432876587e-01" purity="9.3891143798828125e-01" nType="-99"/>
            </Node>
            <Node pos="r" depth="3" NCoef="0" IVar="2" Cut="1.9506708145141602e+01" cType="1" res="1.6325153410434723e-01" rms="4.1389715671539307e-01" purity="7.6442211866378784e-01" nType="0">
              <Node pos="l" depth="4" NCoef="0" IVar="-1" Cut="0.0000000000000000e+00" cType="1" res="1.3509895652532578e-02" rms="3.2917615771293640e-01" purity="8.7419253587722778e-01" nType="-99"/>
              <Node pos="r" depth="4" NCoef="0" IVar="-1" Cut="0.0000000000000000e+00" cType="1" res="-9.3520298833027482e-05" rms="4.8235052824020386e-01" purity="5.8015829324722290e-01" nType="-99"/>
            </Node>
          </Node>
          <Node pos="r" depth="2" NCoef="0" IVar="-1" Cut="0.0000000000000000e+00" cType="1" res="2.1880439016968012e-03" rms="4.9430257081985474e-01" purity="5.5753630399703979e-01" nType="-99"/>
        </Node>
      </Node>
    </BinaryTree>
    <BinaryTree type="DecisionTree" boostWeight="1.0000000000000000e+00" itree="20">
      <Node pos="s" depth="0" NCoef="0" IVar="0" Cut="1.1170301818847656e+02" cType="1" res="2.3750646039843559e-02" rms="3.8281923532485962e-01" purity="4.9078840017318726e-01" nType="0">
        <Node pos="l" depth="1" NCoef="0" IVar="0" Cut="1.0445438385009766e+02" cType="1" res="-1.9417515397071838e-01" rms="2.4592526257038116e-01" purity="8.9395172894001007e-02" nType="0">
          <Node pos="l" depth="2" NCoef="0" IVar="3" Cut="3.1436527252197266e+01" cType="1" res="-2.1730032563209534e-01" rms="1.7275090515613556e-01" purity="3.5264328122138977e-02" nType="0">
            <Node pos="l" depth="3" NCoef="0" IVar="0" Cut="8.2741485595703125e+01" cType="1" res="-1.9740109145641327e-01" rms="1.0482803732156754e-01" purity="1.1509554460644722e-02" nType="0">
              <Node pos="l" depth="4" NCoef="0" IVar="-1" Cut="0.0000000000000000e+00" cType="1" res="-2.8025159612298012e-02" rms="7.4472732841968536e-02" purity="5.6187394075095654e-03" nType="-99"/>
              <Node pos="r" depth="4" NCoef="0" IVar="-1" Cut="0.0000000000000000e+00" cType="1" res="-1.6361044719815254e-02" rms="1.3900296390056610e-01" purity="2.1027399227023125e-02" nType="-99"/>
            </Node>
            <Node pos="r" depth="3" NCoef="0" IVar="2" Cut="2.9399763107299805e+01" cType="1" res="-2.3033800721168518e-01" rms="2.0436801016330719e-01" purity="5.0828099250793457e-02" nType="0">
              <Node pos="l" depth="4" NCoef="0" IVar="5" Cut="2.3612926006317139e+00" cType="1" res="-2.1828407049179077e-01" rms="2.3583400249481201e-01" purity="7.1087516844272614e-02" nType="0">
                <Node pos="l" depth="5" NCoef="0" IVar="-1" Cut="0.0000000000000000e+00" cType="1" res="-1.2239129282534122e-02" rms="2.6508954167366028e-01" purity="9.3663364648818970e-02" nType="-99"/>
                <Node pos="r" depth="5" NCoef="0" IVar="-1" Cut="0.0000000000000000e+00" cType="1" res="-1.1678812094032764e-02" rms="1.5976935625076294e-01" purity="2.7672743424773216e-02" nType="-99"/>
              </Node>
              <Node pos="r" depth="4" NCoef="0" IVar="-1" Cut="0.0000000000000000e+00" cType="1" res="-2.0271858200430870e-02" rms="1.0496304184198380e-01" purity="7.2917980141937733e-03" nType="-99"/>
            </Node>
          </Node>
          <Node pos="r" depth="2" NCoef="0" IVar="-1" Cut="0.0000000000000000e+00" cType="1" res="-1.5193606959655881e-03" rms="4.8798033595085144e-01" purity="4.5200315117835999e-01" nType="-99"/>
        </Node>
        <Node pos="r" depth="1" NCoef="0" IVar="0" Cut="1.5725479125976562e+02" cType="1" res="1.8905703723430634e-01" rms="3.8534238934516907e-01" purity="7.9526293277740479e-01" nType="0">
          <Node pos="l" depth="2" NCoef="0" IVar="4" Cut="3.1386198043823242e+01" cType="1" res="2.1707308292388916e-01" rms="3.6075609922409058e-01" purity="8.3303576707839966e-01" nType="0">
            <Node pos="l" depth="3" NCoef="0" IVar="-1" Cut="0.0000000000000000e+00" cType="1" res="1.4445492997765541e-03" rms="4.5539370179176331e-01" purity="6.9411015510559082e-01" nType="-99"/>
            <Node pos="r" depth="3" NCoef="0" IVar="2" Cut="2.4931432723999023e+01" cType="1" res="2.4584227800369263e-01" rms="3.2500636577606201e-01" purity="8.7005609273910522e-01" nType="0">
              <Node pos="l" depth="4" NCoef="0" IVar="4" Cut="4.3914527893066406e+01" cType="1" res="2.8529950976371765e-01" rms="2.7222952246665955e-01" purity="9.1640001535415649e-01" nType="0">
                <Node pos="l" depth="5" NCoef="0" IVar="-1" Cut="0.0000000000000000e+00" cType="1" res="1.3367354869842529e-02" rms="3.0434492230415344e-01" purity="8.9359700679779053e-01" nType="-99"/>
                <Node pos="r" depth="5" NCoef="0" IVar="-1" Cut="0.0000000000000000e+00" cType="1" res="1.7222870141267776e-02" rms="2.1447162330150604e-01" purity="9.5014184713363647e-01" nType="-99"/>
              </Node>
              <Node pos="r" depth="4" NCoef="0" IVar="4" Cut="4.8014717102050781e+01" cType="1" res="1.6822147369384766e-01" rms="3.9818152785301208e-01" purity="7.7888768911361694e-01" nType="0">
                <Node pos="l" depth="5" NCoef="0" IVar="-1" Cut="0.0000000000000000e+00" cType="1" res="1.7223188187927008e-03" rms="4.6286353468894958e-01" purity="6.3976275920867920e-01" nType="-99"/>
                <Node pos="r" depth="5" NCoef="0" IVar="-1" Cut="0.0000000000000000e+00" cType="1" res="1.2384913861751556e-02" rms="3.0783262848854065e-01" purity="8.8506221771240234e-01" nType="-99"/>
              </Node>
            </Node>
          </Node>
          <Node pos="r" depth="2" NCoef="0" IVar="-1" Cut="0.0000000000000000e+00" cType="1" res="-4.0258993394672871e-03" rms="4.9490302801132202e-01" purity="4.2934808135032654e-01" nType="-99"/>
        </Node>
      </Node>
    </BinaryTree>
    <BinaryTree type="DecisionTree" boostWeight="1.0000000000000000e+00" itree="21">
      <Node pos="s" depth="0" NCoef="0" IVar="0" Cut="1.0406303405761719e+02" cType="1" res="2.5639874860644341e-02" rms="3.8201943039894104e-01" purity="4.9652546644210815e-01" nType="0">
        <Node pos="l" depth="1" NCoef="0" IVar="7" Cut="1.4979227066040039e+01" cType="1" res="-2.0827358961105347e-01" rms="1.7838691174983978e-01" purity="3.7478003650903702e-02" nType="0">
          <Node pos="l" depth="2" NCoef="0" IVar="3" Cut="3.8276504516601562e+01" cType="1" res="-1.9641104340553284e-01" rms="1.8468448519706726e-01" purity="4.3389286845922470e-02" nType="0">
            <Node pos="l" depth="3" NCoef="0" IVar="3" Cut="3.1172586441040039e+01" cType="1" res="-2.0336675643920898e-01" rms="1.2000889331102371e-01" purity="1.5026144683361053e-02" nType="0">
